SVM-light Version V6.02
0 # kernel type
3 # kernel parameter -d 
1 # kernel parameter -g 
1 # kernel parameter -s 
1 # kernel parameter -r 
empty# kernel parameter -u 
7 # highest feature index 
59846 # number of training documents 
29313 # number of support vectors plus 1 
0.37320401 # threshold b, each following line is a SV (starting with alpha*y)
-4.0848474115334622e-008 1:5 2:0 3:0 4:0 5:3886.7029 6:6196.0386 7:0 #
4.0848474115334622e-008 1:2 2:6 3:4175 4:3540 5:24373.83 6:47994.355 7:41733.781 #
-4.0848474115334622e-008 1:1 2:0 3:168.90057 4:295.70419 5:24373.83 6:47994.355 7:41733.781 #
4.0848474115334622e-008 1:3 2:5 3:2051 4:5205 5:24373.83 6:47994.355 7:41733.781 #
-4.0848474115334622e-008 1:4 2:2 3:0 4:294.14819 5:24373.83 6:47994.355 7:41733.781 #
4.0848474115334622e-008 1:3 2:5 3:5332 4:3717 5:47994.355 6:41733.781 7:35334.039 #
-4.0848474115334622e-008 1:7 2:2 3:355.59955 4:252.98412 5:47994.355 6:41733.781 7:35334.039 #
4.0848474115334622e-008 1:2 2:6 3:3717 4:7374 5:23309.416 6:24373.83 7:47994.355 #
-4.0848474115334622e-008 1:6 2:6 3:259 4:200 5:47994.355 6:41733.781 7:35334.039 #
4.0848474115334622e-008 1:3 2:6 3:221.82542 4:2618 5:10507.707 6:25586.002 7:23309.416 #
-4.0848474115334622e-008 1:4 2:0 3:0 4:359.02286 5:23309.416 6:24373.83 7:47994.355 #
4.0848474115334622e-008 1:3 2:5 3:5205 4:206.17967 5:41733.781 6:35334.039 7:8979.5215 #
-4.0848474115334622e-008 1:3 2:0 3:0 4:294.1467 5:24373.83 6:47994.355 7:41733.781 #
4.0848474115334622e-008 1:2 2:6 3:3208 4:4175 5:25586.002 6:23309.416 7:24373.83 #
-4.0848474115334622e-008 1:0 2:2 3:309 4:10.714316 5:3561.5342 6:51.633495 7:46.656425 #
4.0848474115334622e-008 1:2 2:6 3:7374 4:3208 5:47994.355 6:41733.781 7:35334.039 #
-4.0848474115334622e-008 1:2 2:0 3:0 4:0 5:47994.355 6:41733.781 7:35334.039 #
4.0848474115334622e-008 1:2 2:5 3:322.22922 4:2360 5:24373.83 6:47994.355 7:41733.781 #
-4.0848474115334622e-008 1:7 2:1 3:0 4:0 5:47994.355 6:41733.781 7:35334.039 #
4.0848474115334622e-008 1:2 2:6 3:2036 4:2036 5:13627.521 6:20834.104 7:12557.965 #
-4.0848474115334622e-008 1:6 2:1 3:0 4:294.14496 5:24373.83 6:47994.355 7:41733.781 #
4.0848474115334622e-008 1:2 2:6 3:3540 4:1262 5:41733.781 6:35334.039 7:8979.5215 #
-4.0848474115334622e-008 1:7 2:6 3:256.33243 4:36 5:35334.039 6:8979.5215 7:3886.7029 #
4.0848474115334622e-008 1:2 2:6 3:190.47395 4:3717 5:10507.707 6:25586.002 7:23309.416 #
-4.0848474115334622e-008 1:6 2:3 3:0 4:202 5:49.282223 6:6475.5566 7:3788.7727 #
4.0848474115334622e-008 1:0 2:6 3:325.05795 4:471.17703 5:23309.416 6:24373.83 7:47994.355 #
-4.0848474115334622e-008 1:5 2:0 3:0 4:294.14471 5:24373.83 6:47994.355 7:41733.781 #
4.0848474115334622e-008 1:3 2:5 3:325.80215 4:2051 5:25586.002 6:23309.416 7:24373.83 #
-4.0848474115334622e-008 1:6 2:0 3:0 4:294.14371 5:24373.83 6:47994.355 7:41733.781 #
4.0848474115334622e-008 1:3 2:6 3:2618 4:462.93835 5:23309.416 6:24373.83 7:47994.355 #
-4.0848474115334622e-008 1:3 2:0 3:166.42596 4:0 5:23309.416 6:24373.83 7:47994.355 #
4.0848474115334622e-008 1:3 2:6 3:3812 4:2795 5:25586.002 6:23309.416 7:24373.83 #
-4.0848474115334622e-008 1:0 2:1 3:254.57356 4:33.272652 5:35334.039 6:8979.5215 7:3886.7029 #
4.0848474115334622e-008 1:1 2:6 3:1983 4:276.13724 5:25586.002 6:23309.416 7:24373.83 #
-4.0848474115334622e-008 1:6 2:1 3:166.42418 4:0 5:23309.416 6:24373.83 7:47994.355 #
4.0848474115334622e-008 1:2 2:7 3:431.64206 4:155.882 5:41733.781 6:35334.039 7:8979.5215 #
-4.0848474115334622e-008 1:3 2:0 3:294.1467 4:63.564209 5:41733.781 6:35334.039 7:8979.5215 #
4.0848474115334622e-008 1:1 2:7 3:270.17697 4:441.2843 5:24373.83 6:47994.355 7:41733.781 #
-4.0848474115334622e-008 1:5 2:1 3:14 4:222 5:24373.83 6:47994.355 7:41733.781 #
4.0848474115334622e-008 1:3 2:6 3:142.37959 4:2092 5:7763.2051 6:13627.521 7:20834.104 #
-4.0848474115334622e-008 1:3 2:0 3:34.746677 4:0 5:3886.7029 6:6196.0386 7:0 #
4.0848474115334622e-008 1:4 2:6 3:1039 4:2242 5:24373.83 6:47994.355 7:41733.781 #
-4.0848474115334622e-008 1:6 2:2 3:173.44003 4:14 5:24373.83 6:47994.355 7:41733.781 #
4.0848474115334622e-008 1:2 2:6 3:2179 4:1409 5:14768.524 6:12930.053 7:8926.6504 #
-4.0848474115334622e-008 1:7 2:2 3:0 4:26.940947 5:49.282223 6:6475.5566 7:3788.7727 #
4.0848474115334622e-008 1:4 2:5 3:2146 4:2019 5:47994.355 6:41733.781 7:35334.039 #
-4.0848474115334622e-008 1:7 2:0 3:0 4:0 5:47994.355 6:41733.781 7:35334.039 #
4.0848474115334622e-008 1:3 2:5 3:135.67589 4:1089 5:7160.936 6:13566.798 7:15172.572 #
-4.0848474115334622e-008 1:7 2:1 3:168.40312 4:0 5:24373.83 6:47994.355 7:41733.781 #
4.0848474115334622e-008 1:2 2:5 3:3503 4:1688 5:47994.355 6:41733.781 7:35334.039 #
-4.0848474115334622e-008 1:6 2:0 3:294.14371 4:63.561153 5:41733.781 6:35334.039 7:8979.5215 #
4.0848474115334622e-008 1:1 2:6 3:442.93011 4:1675 5:47994.355 6:41733.781 7:35334.039 #
-4.0848474115334622e-008 1:6 2:2 3:0 4:256.59052 5:47994.355 6:41733.781 7:35334.039 #
4.0848474115334622e-008 1:3 2:5 3:1434 4:1683 5:11831.428 6:16379.374 7:16194.922 #
-4.0848474115334622e-008 1:0 2:3 3:0 4:523 5:53.463696 6:49.282223 7:6475.5566 #
4.0848474115334622e-008 1:4 2:6 3:2441 4:1003 5:47994.355 6:41733.781 7:35334.039 #
-4.0848474115334622e-008 1:1 2:1 3:36 4:0 5:47994.355 6:41733.781 7:35334.039 #
4.0848474115334622e-008 1:0 2:6 3:170.40884 4:2213 5:11831.428 6:16379.374 7:16194.922 #
-4.0848474115334622e-008 1:5 2:0 3:160.86803 4:0 5:23309.416 6:24373.83 7:47994.355 #
4.0848474115334622e-008 1:0 2:6 3:2213 4:2154 5:16379.374 6:16194.922 7:13861.269 #
-4.0848474115334622e-008 1:3 2:3 3:309 4:0 5:3561.5342 6:51.633495 7:46.656425 #
4.0848474115334622e-008 1:2 2:6 3:176.97755 4:2299 5:13664.028 6:14768.524 7:12930.053 #
-4.0848474115334622e-008 1:6 2:1 3:294.14496 4:14 5:41733.781 6:35334.039 7:8979.5215 #
4.0848474115334622e-008 1:3 2:6 3:147.53743 4:2026 5:4681.2368 6:11831.428 7:16379.374 #
-4.0848474115334622e-008 1:2 2:3 3:0.85514313 4:375 5:53.463696 6:49.282223 7:6475.5566 #
4.0848474115334622e-008 1:4 2:5 3:267.50763 4:2382 5:24373.83 6:47994.355 7:41733.781 #
-4.0848474115334622e-008 1:2 2:0 3:0 4:0 5:24373.83 6:47994.355 7:41733.781 #
4.0848474115334622e-008 1:0 2:6 3:2213 4:114.3499 5:16194.922 6:13861.269 7:4517.2153 #
-4.0848474115334622e-008 1:7 2:6 3:114.27419 4:4 5:16194.922 6:13861.269 7:4517.2153 #
4.0848474115334622e-008 1:0 2:7 3:731 4:379.54532 5:24373.83 6:47994.355 7:41733.781 #
-4.0848474115334622e-008 1:7 2:0 3:0 4:0 5:24373.83 6:47994.355 7:41733.781 #
4.0848474115334622e-008 1:3 2:6 3:2438 4:1068 5:13627.521 6:20834.104 7:12557.965 #
-4.0848474115334622e-008 1:2 2:0 3:14 4:0 5:23309.416 6:24373.83 7:47994.355 #
4.0848474115334622e-008 1:2 2:6 3:3216 4:119.55098 5:20834.104 6:12557.965 7:5611.7383 #
-4.0848474115334622e-008 1:4 2:0 3:305.60989 4:0 5:41733.781 6:35334.039 7:8979.5215 #
4.0848474115334622e-008 1:3 2:5 3:2773 4:5332 5:23309.416 6:24373.83 7:47994.355 #
-4.0848474115334622e-008 1:4 2:0 3:95.773727 4:90.302834 5:13627.521 6:20834.104 7:12557.965 #
4.0848474115334622e-008 1:4 2:5 3:2382 4:136.9863 5:41733.781 6:35334.039 7:8979.5215 #
-4.0848474115334622e-008 1:4 2:2 3:294.14819 4:0 5:41733.781 6:35334.039 7:8979.5215 #
4.0848474115334622e-008 1:2 2:6 3:687 4:3216 5:7763.2051 6:13627.521 7:20834.104 #
-4.0848474115334622e-008 1:4 2:2 3:0 4:0 5:23309.416 6:24373.83 7:47994.355 #
4.0848474115334622e-008 1:3 2:6 3:2170 4:732 5:11831.428 6:16379.374 7:16194.922 #
-4.0848474115334622e-008 1:6 2:2 3:0 4:0.77979076 5:46.656425 6:3767.2915 7:111.0256 #
4.0848474115334622e-008 1:0 2:5 3:1461 4:400.97089 5:24373.83 6:47994.355 7:41733.781 #
-4.0848474115334622e-008 1:1 2:0 3:22 4:88.223038 5:13627.521 6:20834.104 7:12557.965 #
4.0848474115334622e-008 1:2 2:6 3:169.70688 4:1774 5:13566.798 6:15172.572 7:11423.946 #
-4.0848474115334622e-008 1:1 2:1 3:75.026352 4:167.12199 5:10507.707 6:25586.002 7:23309.416 #
4.0848474115334622e-008 1:1 2:6 3:390 4:2573 5:10507.707 6:25586.002 7:23309.416 #
-4.0848474115334622e-008 1:6 2:2 3:75.022614 4:167.06358 5:10507.707 6:25586.002 7:23309.416 #
4.0848474115334622e-008 1:1 2:6 3:140.58379 4:1912 5:7160.936 6:13566.798 7:15172.572 #
-4.0848474115334622e-008 1:0 2:1 3:0 4:0.66486424 5:46.656425 6:3767.2915 7:111.0256 #
4.0848474115334622e-008 1:1 2:6 3:1955 4:152.66557 5:13566.798 6:15172.572 7:11423.946 #
-4.0848474115334622e-008 1:5 2:0 3:294.14471 4:0 5:41733.781 6:35334.039 7:8979.5215 #
4.0848474115334622e-008 1:1 2:6 3:234.59326 4:653 5:20834.104 6:12557.965 7:5611.7383 #
-4.0848474115334622e-008 1:1 2:2 3:9.246006 4:342 5:51.633495 6:46.656425 7:3767.2915 #
4.0848474115334622e-008 1:1 2:5 3:1629 4:129.01642 5:41733.781 6:35334.039 7:8979.5215 #
-4.0848474115334622e-008 1:1 2:1 3:14 4:61.570423 5:41733.781 6:35334.039 7:8979.5215 #
4.0848474115334622e-008 1:2 2:6 3:1491 4:141.8049 5:8820.1963 6:8867.6455 7:8484.083 #
-4.0848474115334622e-008 1:1 2:0 3:45.054813 4:184.29048 5:6176.582 6:10507.707 7:25586.002 #
4.0848474115334622e-008 1:1 2:6 3:125.51764 4:223.79982 5:8324.292 6:13664.028 7:14768.524 #
-4.0848474115334622e-008 1:7 2:5 3:0 4:0.66283828 5:46.656425 6:3767.2915 7:111.0256 #
4.0848474115334622e-008 1:2 2:6 3:1989 4:97.214668 5:15172.572 6:11423.946 7:3781.2725 #
-4.0848474115334622e-008 1:2 2:0 3:0 4:0 5:41733.781 6:35334.039 7:8979.5215 #
4.0848474115334622e-008 1:1 2:6 3:152.49806 4:734 5:8867.6455 6:8484.083 7:4205.0996 #
-4.0848474115334622e-008 1:6 2:6 3:141 4:177.36301 5:25586.002 6:23309.416 7:24373.83 #
4.0848474115334622e-008 1:1 2:7 3:441.2843 4:318 5:41733.781 6:35334.039 7:8979.5215 #
-4.0848474115334622e-008 1:7 2:1 3:0 4:0 5:41733.781 6:35334.039 7:8979.5215 #
4.0848474115334622e-008 1:3 2:6 3:199.09151 4:140.52859 5:14768.524 6:12930.053 7:8926.6504 #
-4.0848474115334622e-008 1:2 2:4 3:6.9247093 4:342 5:51.633495 6:46.656425 7:3767.2915 #
4.0848474115334622e-008 1:2 2:5 3:613 4:930 5:10507.707 6:25586.002 7:23309.416 #
-4.0848474115334622e-008 1:6 2:0 3:0 4:0 5:23309.416 6:24373.83 7:47994.355 #
4.0848474115334622e-008 1:1 2:6 3:377 4:1470 5:4681.2368 6:11831.428 7:16379.374 #
-4.0848474115334622e-008 1:5 2:3 3:0 4:0.66235811 5:46.656425 6:3767.2915 7:111.0256 #
4.0848474115334622e-008 1:2 2:5 3:2360 4:124.90026 5:41733.781 6:35334.039 7:8979.5215 #
-4.0848474115334622e-008 1:7 2:0 3:0 4:0 5:41733.781 6:35334.039 7:8979.5215 #
4.0848474115334622e-008 1:0 2:6 3:136.66881 4:325.05795 5:10507.707 6:25586.002 7:23309.416 #
-4.0848474115334622e-008 1:6 2:4 3:76.723 4:45 5:10507.707 6:25586.002 7:23309.416 #
4.0848474115334622e-008 1:3 2:5 3:2232 4:1079 5:16379.374 6:16194.922 7:13861.269 #
-4.0848474115334622e-008 1:6 2:4 3:0.66627902 4:120 5:149.09357 6:133.70079 7:280.24899 #
4.0848474115334622e-008 1:1 2:6 3:2346 4:340 5:41733.781 6:35334.039 7:8979.5215 #
-4.0848474115334622e-008 1:4 2:2 3:76.722511 4:0 5:10507.707 6:25586.002 7:23309.416 #
4.0848474115334622e-008 1:3 2:5 3:169.55885 4:151.85104 5:13627.521 6:20834.104 7:12557.965 #
-4.0848474115334622e-008 1:7 2:2 3:75.021614 4:167.06256 5:10507.707 6:25586.002 7:23309.416 #
4.0848474115334622e-008 1:4 2:6 3:849 4:254.43794 5:10507.707 6:25586.002 7:23309.416 #
-4.0848474115334622e-008 1:7 2:6 3:75.519264 4:163 5:10507.707 6:25586.002 7:23309.416 #
4.0848474115334622e-008 1:1 2:5 3:1606 4:1806 5:47994.355 6:41733.781 7:35334.039 #
-4.0848474115334622e-008 1:7 2:1 3:183.8018 4:168.40312 5:25586.002 6:23309.416 7:24373.83 #
4.0848474115334622e-008 1:1 2:6 3:223.79982 4:1180 5:14768.524 6:12930.053 7:8926.6504 #
-4.0848474115334622e-008 1:7 2:2 3:252.98412 4:0 5:35334.039 6:8979.5215 7:3886.7029 #
4.0848474115334622e-008 1:3 2:5 3:702 4:165.63251 5:8324.292 6:13664.028 7:14768.524 #
-4.0848474115334622e-008 1:4 2:0 3:0 4:26.941473 5:49.282223 6:6475.5566 7:3788.7727 #
-4.0848474115334622e-008 1:7 2:7 3:96.236908 4:90.335152 5:13627.521 6:20834.104 7:12557.965 #
-4.0848474115334622e-008 1:5 2:0 3:75.021133 4:160.86803 5:10507.707 6:25586.002 7:23309.416 #
-4.0848474115334622e-008 1:3 2:1 3:36 4:36 5:10507.707 6:25586.002 7:23309.416 #
-4.0848474115334622e-008 1:1 2:7 3:0.43875849 4:342 5:53.463696 6:49.282223 7:6475.5566 #
4.0848474115334622e-008 1:1 2:5 3:259.71954 4:1629 5:24373.83 6:47994.355 7:41733.781 #
-4.0848474115334622e-008 1:7 2:5 3:170.01254 4:302.81299 5:24373.83 6:47994.355 7:41733.781 #
4.0848474115334622e-008 1:2 2:6 3:1063 4:1348 5:6622.5566 6:8087.438 7:9279.7236 #
4.0848474115334622e-008 1:2 2:6 3:1262 4:964 5:8243.7627 6:9882.8076 7:7350.7192 #
-4.0848474115334622e-008 1:5 2:1 3:184.61325 4:14 5:25586.002 6:23309.416 7:24373.83 #
4.0848474115334622e-008 1:3 2:6 3:173.82065 4:1055 5:13566.798 6:15172.572 7:11423.946 #
-4.0848474115334622e-008 1:4 2:5 3:1.4517403 4:89 5:18.44986 6:4.5394626 7:468.91095 #
4.0848474115334622e-008 1:0 2:5 3:239.95789 4:1992 5:23309.416 6:24373.83 7:47994.355 #
4.0848474115334622e-008 1:2 2:6 3:660 4:1838 5:4049.3328 6:8820.1963 7:8867.6455 #
-4.0848474115334622e-008 1:7 2:0 3:0 4:0 5:23309.416 6:24373.83 7:47994.355 #
4.0848474115334622e-008 1:0 2:6 3:150.39626 4:145.26404 5:13627.521 6:20834.104 7:12557.965 #
-4.0848474115334622e-008 1:7 2:0 3:31.586542 4:0 5:3886.7029 6:6196.0386 7:0 #
4.0848474115334622e-008 1:2 2:6 3:171.9807 4:1376 5:16379.374 6:16194.922 7:13861.269 #
-4.0848474115334622e-008 1:4 2:0 3:187.10298 4:0 5:25586.002 6:23309.416 7:24373.83 #
4.0848474115334622e-008 1:2 2:6 3:1254 4:1242 5:6863.5869 6:7825.0635 7:9534.2051 #
-4.0848474115334622e-008 1:6 2:2 3:0 4:0 5:3886.7029 6:6196.0386 7:0 #
4.0848474115334622e-008 1:1 2:6 3:1708 4:1269 5:11831.428 6:16379.374 7:16194.922 #
-4.0848474115334622e-008 1:2 2:0 3:36 4:14 5:10507.707 6:25586.002 7:23309.416 #
4.0848474115334622e-008 1:4 2:6 3:137.81911 4:1029 5:11831.428 6:16379.374 7:16194.922 #
-4.0848474115334622e-008 1:6 2:1 3:0 4:0 5:3886.7029 6:6196.0386 7:0 #
4.0848474115334622e-008 1:3 2:5 3:581 4:2232 5:4681.2368 6:11831.428 7:16379.374 #
-4.0848474115334622e-008 1:2 2:1 3:0 4:14 5:10507.707 6:25586.002 7:23309.416 #
4.0848474115334622e-008 1:2 2:6 3:98.65229 4:104.57136 5:3895.7 6:11137.224 7:7047.7842 #
4.0848474115334622e-008 1:4 2:3 3:405.22476 4:472 5:47994.355 6:41733.781 7:35334.039 #
-4.0848474115334622e-008 1:2 2:1 3:23 4:302.72357 5:24373.83 6:47994.355 7:41733.781 #
4.0848474115334622e-008 1:2 2:6 3:2299 4:86.693115 5:12930.053 6:8926.6504 7:4340.8403 #
4.0848474115334622e-008 1:2 2:7 3:613 4:431.64206 5:24373.83 6:47994.355 7:41733.781 #
-4.0848474115334622e-008 1:6 2:3 3:82 4:64.900719 5:41733.781 6:35334.039 7:8979.5215 #
-4.0848474115334622e-008 1:7 2:0 3:187.05721 4:0 5:25586.002 6:23309.416 7:24373.83 #
4.0848474115334622e-008 1:2 2:6 3:92.969917 4:1023 5:5856.1021 6:7454.1318 7:6778.0342 #
-4.0848474115334622e-008 1:0 2:2 3:1.1224905 4:321 5:53.463696 6:49.282223 7:6475.5566 #
4.0848474115334622e-008 1:4 2:6 3:899 4:144.22003 5:13627.521 6:20834.104 7:12557.965 #
-4.0848474115334622e-008 1:6 2:0 3:0 4:0 5:10507.707 6:25586.002 7:23309.416 #
4.0848474115334622e-008 1:3 2:5 3:937 4:1051 5:5397.7905 6:10418.215 7:9062.6514 #
-4.0848474115334622e-008 1:7 2:1 3:0 4:0 5:3886.7029 6:6196.0386 7:0 #
4.0848474115334622e-008 1:2 2:5 3:1137 4:618 5:13627.521 6:20834.104 7:12557.965 #
4.0848474115334622e-008 1:5 2:6 3:90.55703 4:75.031227 5:4945.6357 6:6101.4565 7:3209.9065 #
-4.0848474115334622e-008 1:7 2:0 3:0 4:26.026438 5:49.282223 6:6475.5566 7:3788.7727 #
-4.0848474115334622e-008 1:1 2:0 3:0 4:0 5:49.282223 6:6475.5566 7:3788.7727 #
4.0848474115334622e-008 1:2 2:6 3:1477 4:757 5:16194.922 6:13861.269 7:4517.2153 #
4.0848474115334622e-008 1:0 2:6 3:1089 4:1095 5:13566.798 6:15172.572 7:11423.946 #
-4.0848474115334622e-008 1:7 2:4 3:97.767128 4:0 5:13627.521 6:20834.104 7:12557.965 #
4.0848474115334622e-008 1:2 2:6 3:1522 4:81.322624 5:8087.438 6:9279.7236 7:4745.2827 #
-4.0848474115334622e-008 1:7 2:0 3:114.2666 4:0 5:16194.922 6:13861.269 7:4517.2153 #
4.0848474115334622e-008 1:1 2:5 3:1084 4:771 5:13566.798 6:15172.572 7:11423.946 #
-4.0848474115334622e-008 1:7 2:2 3:110.59477 4:0 5:16194.922 6:13861.269 7:4517.2153 #
4.0848474115334622e-008 1:1 2:6 3:510 4:897 5:10418.215 6:9062.6514 7:9712.5146 #
-4.0848474115334622e-008 1:5 2:0 3:97.699089 4:0 5:13627.521 6:20834.104 7:12557.965 #
4.0848474115334622e-008 1:3 2:5 3:508 4:325.80215 5:6176.582 6:10507.707 7:25586.002 #
-4.0848474115334622e-008 1:7 2:0 3:0 4:88.217072 5:13627.521 6:20834.104 7:12557.965 #
4.0848474115334622e-008 1:2 2:2 3:635 4:731 5:47994.355 6:41733.781 7:35334.039 #
-4.0848474115334622e-008 1:4 2:2 3:0 4:0 5:13627.521 6:20834.104 7:12557.965 #
4.0848474115334622e-008 1:2 2:6 3:308 4:1476 5:3515.3901 6:6863.5869 7:7825.0635 #
-4.0848474115334622e-008 1:2 2:0 3:0 4:0 5:13627.521 6:20834.104 7:12557.965 #
4.0848474115334622e-008 1:2 2:6 3:574 4:1517 5:5438.9741 6:8243.7627 7:9882.8076 #
-4.0848474115334622e-008 1:6 2:1 3:0 4:0 5:13627.521 6:20834.104 7:12557.965 #
-4.0848474115334622e-008 1:7 2:1 3:0 4:0 5:13627.521 6:20834.104 7:12557.965 #
-4.0848474115334622e-008 1:6 2:1 3:110.59453 4:0 5:16194.922 6:13861.269 7:4517.2153 #
4.0848474115334622e-008 1:1 2:6 3:1470 4:853 5:16379.374 6:16194.922 7:13861.269 #
4.0848474115334622e-008 1:2 2:6 3:1476 4:79.131393 5:7825.0635 6:9534.2051 7:3498.4363 #
4.0848474115334622e-008 1:2 2:5 3:1042 4:167.28693 5:13664.028 6:14768.524 7:12930.053 #
-4.0848474115334622e-008 1:5 2:0 3:64 4:58.610435 5:4354.2021 6:9992.2959 7:8223.0615 #
4.0848474115334622e-008 1:1 2:5 3:144.22198 4:575 5:13627.521 6:20834.104 7:12557.965 #
-4.0848474115334622e-008 1:6 2:0 3:110.59329 4:0 5:16194.922 6:13861.269 7:4517.2153 #
4.0848474115334622e-008 1:0 2:6 3:135.69717 4:770 5:7351.4438 6:8481.25 7:7224.1665 #
-4.0848474115334622e-008 1:0 2:0 3:32 4:0 5:16194.922 6:13861.269 7:4517.2153 #
4.0848474115334622e-008 1:3 2:5 3:74.365562 4:110.92016 5:3895.7 6:11137.224 7:7047.7842 #
-4.0848474115334622e-008 1:5 2:2 3:32.511894 4:55.610371 5:4343.3638 6:10027.052 7:7906.8276 #
4.0848474115334622e-008 1:2 2:6 3:744 4:66.311981 5:10027.052 6:7906.8276 7:3036.5181 #
-4.0848474115334622e-008 1:7 2:6 3:63.564915 4:41 5:9062.6514 6:9712.5146 7:3695.0015 #
4.0848474115334622e-008 1:0 2:6 3:144.30988 4:1078 5:13664.028 6:14768.524 7:12930.053 #
-4.0848474115334622e-008 1:5 2:4 3:82 4:12 5:9062.6514 6:9712.5146 7:3695.0015 #
4.0848474115334622e-008 1:2 2:6 3:76.66304 4:1065 5:4354.2021 6:9992.2959 7:8223.0615 #
-4.0848474115334622e-008 1:5 2:1 3:32.246716 4:52.549156 5:3895.7 6:11137.224 7:7047.7842 #
4.0848474115334622e-008 1:2 2:6 3:3208 4:83.686897 5:35334.039 6:8979.5215 7:3886.7029 #
-4.0848474115334622e-008 1:4 2:0 3:65.459137 4:25.67087 5:9062.6514 6:9712.5146 7:3695.0015 #
4.0848474115334622e-008 1:3 2:6 3:64.580673 4:93.553757 5:2333.6106 6:4890.5239 7:6580.8569 #
-4.0848474115334622e-008 1:0 2:0 3:55.650551 4:24.323095 5:7825.0635 6:9534.2051 7:3498.4363 #
4.0848474115334622e-008 1:0 2:6 3:565 4:117.5566 5:8820.1963 6:8867.6455 7:8484.083 #
-4.0848474115334622e-008 1:6 2:2 3:56.059055 4:7 5:7825.0635 6:9534.2051 7:3498.4363 #
4.0848474115334622e-008 1:3 2:6 3:955 4:147.53743 5:5425.3276 6:6742.9082 7:4681.2368 #
-4.0848474115334622e-008 1:6 2:3 3:6 4:24.312441 5:7825.0635 6:9534.2051 7:3498.4363 #
4.0848474115334622e-008 1:0 2:6 3:86.343292 4:879 5:6236.7656 6:9675.248 7:7359.373 #
-4.0848474115334622e-008 1:4 2:0 3:0 4:52.548912 5:3895.7 6:11137.224 7:7047.7842 #
4.0848474115334622e-008 1:1 2:6 3:1599 4:431 5:12930.053 6:8926.6504 7:4340.8403 #
-4.0848474115334622e-008 1:7 2:6 3:6 4:23.628916 5:7825.0635 6:9534.2051 7:3498.4363 #
4.0848474115334622e-008 1:0 2:5 3:156.20772 4:74.205223 5:16194.922 6:13861.269 7:4517.2153 #
-4.0848474115334622e-008 1:4 2:1 3:27 4:0 5:7825.0635 6:9534.2051 7:3498.4363 #
4.0848474115334622e-008 1:0 2:6 3:81.967308 4:135.69717 5:4932.7153 6:7413.7197 7:7351.4438 #
-4.0848474115334622e-008 1:4 2:0 3:0 4:23.624489 5:7825.0635 6:9534.2051 7:3498.4363 #
4.0848474115334622e-008 1:1 2:6 3:994 4:886 5:7825.0635 6:9534.2051 7:3498.4363 #
-4.0848474115334622e-008 1:6 2:0 3:0 4:23.622498 5:7825.0635 6:9534.2051 7:3498.4363 #
4.0848474115334622e-008 1:3 2:5 3:670 4:106.23938 5:8243.7627 6:9882.8076 7:7350.7192 #
-4.0848474115334622e-008 1:0 2:1 3:21 4:0 5:7825.0635 6:9534.2051 7:3498.4363 #
-4.0848474115334622e-008 1:7 2:1 3:0 4:51.040104 5:3895.7 6:11137.224 7:7047.7842 #
-4.0848474115334622e-008 1:1 2:1 3:31.265224 4:10 5:3895.7 6:11137.224 7:7047.7842 #
4.0848474115334622e-008 1:3 2:6 3:732 4:77.271767 5:16194.922 6:13861.269 7:4517.2153 #
4.0848474115334622e-008 1:2 2:6 3:91.581612 4:138.50211 5:5397.7905 6:10418.215 7:9062.6514 #
4.0848474115334622e-008 1:3 2:5 3:74.543182 4:686 5:4890.5239 6:6580.8569 7:6622.5566 #
-4.0848474115334622e-008 1:6 2:3 3:10 4:27 5:3895.7 6:11137.224 7:7047.7842 #
4.0848474115334622e-008 1:1 2:6 3:1096 4:445 5:7351.4438 6:8481.25 7:7224.1665 #
-4.0848474115334622e-008 1:1 2:0 3:29.64514 4:0 5:3895.7 6:11137.224 7:7047.7842 #
4.0848474115334622e-008 1:1 2:6 3:102.98619 4:1107 5:7413.7197 6:7351.4438 7:8481.25 #
-4.0848474115334622e-008 1:6 2:0 3:29.640163 4:0 5:3895.7 6:11137.224 7:7047.7842 #
4.0848474115334622e-008 1:4 2:6 3:88.002426 4:713 5:5397.7905 6:10418.215 7:9062.6514 #
-4.0848474115334622e-008 1:7 2:7 3:10 4:10 5:3895.7 6:11137.224 7:7047.7842 #
4.0848474115334622e-008 1:2 2:6 3:92.667107 4:763 5:7351.4438 6:8481.25 7:7224.1665 #
-4.0848474115334622e-008 1:3 2:0 3:0 4:10 5:3895.7 6:11137.224 7:7047.7842 #
4.0848474115334622e-008 1:2 2:5 3:102.40744 4:1370 5:7763.2051 6:13627.521 7:20834.104 #
-4.0848474115334622e-008 1:4 2:2 3:0 4:0 5:3895.7 6:11137.224 7:7047.7842 #
4.0848474115334622e-008 1:0 2:6 3:89.008713 4:704 5:4343.3638 6:10027.052 7:7906.8276 #
-4.0848474115334622e-008 1:6 2:2 3:0 4:0 5:49.282223 6:6475.5566 7:3788.7727 #
4.0848474115334622e-008 1:0 2:6 3:1370 4:401 5:15172.572 6:11423.946 7:3781.2725 #
-4.0848474115334622e-008 1:3 2:0 3:0 4:0 5:49.282223 6:6475.5566 7:3788.7727 #
4.0848474115334622e-008 1:2 2:6 3:138.50211 4:428 5:9062.6514 6:9712.5146 7:3695.0015 #
-4.0848474115334622e-008 1:6 2:1 3:0 4:0 5:49.282223 6:6475.5566 7:3788.7727 #
4.0848474115334622e-008 1:2 2:6 3:1209 4:228 5:9992.2959 6:8223.0615 7:3430.1667 #
-4.0848474115334622e-008 1:6 2:0 3:0 4:0 5:49.282223 6:6475.5566 7:3788.7727 #
4.0848474115334622e-008 1:0 2:6 3:344 4:1370 5:7160.936 6:13566.798 7:15172.572 #
4.0848474115334622e-008 1:1 2:5 3:502 4:1347 5:7160.936 6:13566.798 7:15172.572 #
-4.0848474115334622e-008 1:3 2:1 3:95 4:73 5:47994.355 6:41733.781 7:35334.039 #
-4.0848474115334622e-008 1:5 2:2 3:0 4:359.55109 5:23309.416 6:24373.83 7:47994.355 #
4.0848474115334622e-008 1:2 2:3 3:840 4:744 5:47994.355 6:41733.781 7:35334.039 #
-4.0848474115334622e-008 1:1 2:1 3:59.283627 4:10 5:8243.7627 6:9882.8076 7:7350.7192 #
4.0848474115334622e-008 1:0 2:4 3:219.25874 4:635 5:24373.83 6:47994.355 7:41733.781 #
-4.0848474115334622e-008 1:7 2:7 3:14 4:45 5:23309.416 6:24373.83 7:47994.355 #
4.0848474115334622e-008 1:3 2:7 3:590 4:626 5:24373.83 6:47994.355 7:41733.781 #
-4.0848474115334622e-008 1:5 2:1 3:0 4:0 5:23309.416 6:24373.83 7:47994.355 #
4.0848474115334622e-008 1:3 2:6 3:308.0845 4:399 5:35334.039 6:8979.5215 7:3886.7029 #
-4.0848474115334622e-008 1:1 2:0 3:45 4:14 5:35334.039 6:8979.5215 7:3886.7029 #
4.0848474115334622e-008 1:2 2:5 3:599 4:153.19041 5:16379.374 6:16194.922 7:13861.269 #
-4.0848474115334622e-008 1:4 2:2 3:0 4:33.269844 5:35334.039 6:8979.5215 7:3886.7029 #
4.0848474115334622e-008 1:1 2:3 3:930 4:781 5:47994.355 6:41733.781 7:35334.039 #
-4.0848474115334622e-008 1:7 2:2 3:97.046318 4:81.076805 5:13566.798 6:15172.572 7:11423.946 #
4.0848474115334622e-008 1:2 2:6 3:934 4:1522 5:6580.8569 6:6622.5566 7:8087.438 #
-4.0848474115334622e-008 1:7 2:4 3:162.15872 4:353.38889 5:23309.416 6:24373.83 7:47994.355 #
4.0848474115334622e-008 1:3 2:5 3:1683 4:77.480515 5:16194.922 6:13861.269 7:4517.2153 #
-4.0848474115334622e-008 1:7 2:0 3:0 4:31.586542 5:35334.039 6:8979.5215 7:3886.7029 #
4.0848474115334622e-008 1:4 2:5 3:120.03475 4:708 5:10507.707 6:25586.002 7:23309.416 #
-4.0848474115334622e-008 1:5 2:2 3:14 4:14 5:25586.002 6:23309.416 7:24373.83 #
4.0848474115334622e-008 1:3 2:4 3:399 4:296.26187 5:47994.355 6:41733.781 7:35334.039 #
-4.0848474115334622e-008 1:5 2:3 3:45 4:359.91827 5:23309.416 6:24373.83 7:47994.355 #
4.0848474115334622e-008 1:0 2:6 3:1243 4:123.68039 5:14768.524 6:12930.053 7:8926.6504 #
-4.0848474115334622e-008 1:2 2:0 3:0 4:0 5:35334.039 6:8979.5215 7:3886.7029 #
4.0848474115334622e-008 1:3 2:5 3:2256 4:992 5:13566.798 6:15172.572 7:11423.946 #
-4.0848474115334622e-008 1:4 2:0 3:0 4:0 5:35334.039 6:8979.5215 7:3886.7029 #
4.0848474115334622e-008 1:0 2:5 3:400.97089 4:259 5:41733.781 6:35334.039 7:8979.5215 #
-4.0848474115334622e-008 1:7 2:6 3:45 4:95 5:24373.83 6:47994.355 7:41733.781 #
4.0848474115334622e-008 1:3 2:6 3:2092 4:83.411377 5:20834.104 6:12557.965 7:5611.7383 #
-4.0848474115334622e-008 1:7 2:5 3:24 4:31.257511 5:12930.053 6:8926.6504 7:4340.8403 #
4.0848474115334622e-008 1:4 2:6 3:254.43794 4:2441 5:23309.416 6:24373.83 7:47994.355 #
-4.0848474115334622e-008 1:4 2:2 3:0 4:0 5:25586.002 6:23309.416 7:24373.83 #
4.0848474115334622e-008 1:4 2:6 3:97.218811 4:261 5:8087.438 6:9279.7236 7:4745.2827 #
-4.0848474115334622e-008 1:5 2:0 3:0 4:0 5:35334.039 6:8979.5215 7:3886.7029 #
-4.0848474115334622e-008 1:7 2:1 3:0 4:0 5:35334.039 6:8979.5215 7:3886.7029 #
-4.0848474115334622e-008 1:5 2:1 3:151.22453 4:42.74408 5:20834.104 6:12557.965 7:5611.7383 #
4.0848474115334622e-008 1:3 2:6 3:1505 4:330 5:15172.572 6:11423.946 7:3781.2725 #
4.0848474115334622e-008 1:3 2:5 3:1376 4:683 5:10418.215 6:9062.6514 7:9712.5146 #
4.0848474115334622e-008 1:2 2:6 3:844 4:980 5:6236.7656 6:9675.248 7:7359.373 #
-4.0848474115334622e-008 1:6 2:2 3:20 4:0 5:9062.6514 6:9712.5146 7:3695.0015 #
4.0848474115334622e-008 1:3 2:3 3:392.35339 4:294.42926 5:47994.355 6:41733.781 7:35334.039 #
-4.0848474115334622e-008 1:1 2:1 3:174.71045 4:14 5:24373.83 6:47994.355 7:41733.781 #
4.0848474115334622e-008 1:1 2:6 3:607 4:199 5:9992.2959 6:8223.0615 7:3430.1667 #
-4.0848474115334622e-008 1:7 2:0 3:57.958309 4:0 5:8243.7627 6:9882.8076 7:7350.7192 #
4.0848474115334622e-008 1:2 2:4 3:342.9942 4:103.00001 5:41733.781 6:35334.039 7:8979.5215 #
-4.0848474115334622e-008 1:7 2:3 3:306.94409 4:63.317818 5:41733.781 6:35334.039 7:8979.5215 #
4.0848474115334622e-008 1:3 2:6 3:86.887924 4:114.77411 5:6622.5566 6:8087.438 7:9279.7236 #
-4.0848474115334622e-008 1:1 2:1 3:31.664413 4:118.6141 5:4681.2368 6:11831.428 7:16379.374 #
-4.0848474115334622e-008 1:2 2:1 3:54.442856 4:151.04253 5:7763.2051 6:13627.521 7:20834.104 #
-4.0848474115334622e-008 1:6 2:0 3:54.437637 4:151.01749 5:7763.2051 6:13627.521 7:20834.104 #
4.0848474115334622e-008 1:2 2:5 3:482 4:1255 5:8324.292 6:13664.028 7:14768.524 #
4.0848474115334622e-008 1:0 2:5 3:816 4:487 5:14768.524 6:12930.053 7:8926.6504 #
4.0848474115334622e-008 1:4 2:6 3:1434 4:144.18929 5:16379.374 6:16194.922 7:13861.269 #
-4.0848474115334622e-008 1:6 2:2 3:147.97331 4:43.193684 5:20834.104 6:12557.965 7:5611.7383 #
4.0848474115334622e-008 1:0 2:5 3:301 4:163.73026 5:7160.936 6:13566.798 7:15172.572 #
-4.0848474115334622e-008 1:6 2:3 3:521 4:42.026718 5:7000.1299 6:6095.8589 7:5941.9795 #
4.0848474115334622e-008 1:1 2:5 3:731 4:259.71954 5:25586.002 6:23309.416 7:24373.83 #
-4.0848474115334622e-008 1:6 2:0 3:0 4:0 5:25586.002 6:23309.416 7:24373.83 #
4.0848474115334622e-008 1:2 2:6 3:1392 4:335 5:7454.1318 6:6778.0342 7:3316.1152 #
-4.0848474115334622e-008 1:1 2:0 3:4 4:0 5:16194.922 6:13861.269 7:4517.2153 #
4.0848474115334622e-008 1:3 2:6 3:80.024002 4:99.733444 5:4354.2021 6:9992.2959 7:8223.0615 #
-4.0848474115334622e-008 1:5 2:2 3:0 4:0.66112262 5:46.656425 6:3767.2915 7:111.0256 #
4.0848474115334622e-008 1:5 2:5 3:826 4:250 5:41733.781 6:35334.039 7:8979.5215 #
-4.0848474115334622e-008 1:2 2:0 3:0 4:0 5:9062.6514 6:9712.5146 7:3695.0015 #
4.0848474115334622e-008 1:1 2:6 3:827 4:1153 5:6863.5869 6:7825.0635 7:9534.2051 #
-4.0848474115334622e-008 1:5 2:1 3:0 4:0 5:9062.6514 6:9712.5146 7:3695.0015 #
4.0848474115334622e-008 1:3 2:6 3:758 4:199.09151 5:8324.292 6:13664.028 7:14768.524 #
-4.0848474115334622e-008 1:5 2:3 3:106.50107 4:26.844242 5:15172.572 6:11423.946 7:3781.2725 #
4.0848474115334622e-008 1:0 2:5 3:459 4:749 5:10418.215 6:9062.6514 7:9712.5146 #
-4.0848474115334622e-008 1:7 2:3 3:0 4:0.66036725 5:46.656425 6:3767.2915 7:111.0256 #
4.0848474115334622e-008 1:4 2:6 3:2242 4:177 5:41733.781 6:35334.039 7:8979.5215 #
-4.0848474115334622e-008 1:6 2:0 3:0 4:0 5:7160.936 6:13566.798 7:15172.572 #
4.0848474115334622e-008 1:0 2:6 3:89.749176 4:723 5:4354.2021 6:9992.2959 7:8223.0615 #
-4.0848474115334622e-008 1:6 2:7 3:118.63215 4:103 5:16379.374 6:16194.922 7:13861.269 #
4.0848474115334622e-008 1:3 2:5 3:1089 4:319 5:15172.572 6:11423.946 7:3781.2725 #
-4.0848474115334622e-008 1:1 2:0 3:106.29018 4:26.237047 5:15172.572 6:11423.946 7:3781.2725 #
4.0848474115334622e-008 1:0 2:5 3:864 4:506 5:13627.521 6:20834.104 7:12557.965 #
-4.0848474115334622e-008 1:3 2:0 3:118.63827 4:98.848724 5:16379.374 6:16194.922 7:13861.269 #
4.0848474115334622e-008 1:2 2:6 3:1049 4:297 5:9675.248 6:7359.373 7:3231.9216 #
-4.0848474115334622e-008 1:4 2:0 3:0 4:0.65964699 5:46.656425 6:3767.2915 7:111.0256 #
4.0848474115334622e-008 1:1 2:6 3:697 4:867 5:6622.5566 6:8087.438 7:9279.7236 #
-4.0848474115334622e-008 1:4 2:2 3:0 4:0 5:16194.922 6:13861.269 7:4517.2153 #
4.0848474115334622e-008 1:1 2:6 3:777 4:42 5:4745.2827 6:3507.8733 7:1159.02 #
-4.0848474115334622e-008 1:6 2:7 3:0 4:0 5:46.656425 6:3767.2915 7:111.0256 #
4.0848474115334622e-008 1:3 2:6 3:454 4:865 5:4049.3328 6:8820.1963 7:8867.6455 #
-4.0848474115334622e-008 1:7 2:1 3:50.118481 4:106.28545 5:7160.936 6:13566.798 7:15172.572 #
4.0848474115334622e-008 1:2 2:5 3:418 4:150 5:8867.6455 6:8484.083 7:4205.0996 #
-4.0848474115334622e-008 1:1 2:1 3:0 4:0 5:46.656425 6:3767.2915 7:111.0256 #
4.0848474115334622e-008 1:2 2:6 3:1517 4:461 5:9882.8076 6:7350.7192 7:4213.9063 #
-4.0848474115334622e-008 1:7 2:3 3:147.97356 4:42.74456 5:20834.104 6:12557.965 7:5611.7383 #
4.0848474115334622e-008 1:3 2:6 3:65.875076 4:1175 5:4394.5479 6:5425.3276 7:6742.9082 #
-4.0848474115334622e-008 1:5 2:2 3:3 4:0 5:14768.524 6:12930.053 7:8926.6504 #
4.0848474115334622e-008 1:1 2:3 3:207.59705 4:1216 5:24373.83 6:47994.355 7:41733.781 #
-4.0848474115334622e-008 1:3 2:0 3:0 4:0 5:8324.292 6:13664.028 7:14768.524 #
4.0848474115334622e-008 1:3 2:6 3:875 4:91.545143 5:5856.1021 6:7454.1318 7:6778.0342 #
-4.0848474115334622e-008 1:5 2:1 3:32.21664 4:57.964142 5:4354.2021 6:9992.2959 7:8223.0615 #
4.0848474115334622e-008 1:1 2:7 3:398 4:66.055634 5:16194.922 6:13861.269 7:4517.2153 #
-4.0848474115334622e-008 1:3 2:0 3:147.97385 4:0 5:20834.104 6:12557.965 7:5611.7383 #
4.0848474115334622e-008 1:3 2:5 3:204 4:1376 5:5941.9795 6:5397.7905 7:10418.215 #
-4.0848474115334622e-008 1:1 2:7 3:1.7922605 4:324 5:291.47256 6:1357.9989 7:4329.9814 #
4.0848474115334622e-008 1:0 2:6 3:89.18338 4:319 5:7825.0635 6:9534.2051 7:3498.4363 #
-4.0848474115334622e-008 1:2 2:1 3:7 4:113.53842 5:11831.428 6:16379.374 7:16194.922 #
4.0848474115334622e-008 1:2 2:6 3:74.535522 4:1063 5:4890.5239 6:6580.8569 7:6622.5566 #
-4.0848474115334622e-008 1:6 2:4 3:0 4:0 5:46.656425 6:3767.2915 7:111.0256 #
4.0848474115334622e-008 1:2 2:5 3:1711 4:322.22922 5:25586.002 6:23309.416 7:24373.83 #
-4.0848474115334622e-008 1:7 2:1 3:74.726227 4:70.728226 5:10418.215 6:9062.6514 7:9712.5146 #
4.0848474115334622e-008 1:1 2:7 3:579 4:86.052551 5:6707.2271 6:6374.5708 7:7100.8442 #
-4.0848474115334622e-008 1:7 2:3 3:61.429096 4:105.37937 5:8324.292 6:13664.028 7:14768.524 #
4.0848474115334622e-008 1:5 2:6 3:104 4:708 5:6176.582 6:10507.707 7:25586.002 #
-4.0848474115334622e-008 1:2 2:0 3:115.88839 4:97.357849 5:16379.374 6:16194.922 7:13861.269 #
4.0848474115334622e-008 1:3 2:6 3:470 4:759 5:5438.9741 6:8243.7627 7:9882.8076 #
-4.0848474115334622e-008 1:3 2:2 3:0 4:0 5:46.656425 6:3767.2915 7:111.0256 #
4.0848474115334622e-008 1:0 2:5 3:94.475784 4:108.1536 5:7413.7197 6:7351.4438 7:8481.25 #
-4.0848474115334622e-008 1:5 2:0 3:0 4:113.48862 5:11831.428 6:16379.374 7:16194.922 #
4.0848474115334622e-008 1:3 2:6 3:86.635483 4:67.884583 5:7047.7842 6:5691.6919 7:4594.9434 #
-4.0848474115334622e-008 1:1 2:0 3:115.92207 4:0 5:16379.374 6:16194.922 7:13861.269 #
4.0848474115334622e-008 1:1 2:5 3:727 4:380 5:11831.428 6:16379.374 7:16194.922 #
-4.0848474115334622e-008 1:7 2:2 3:0 4:110.59477 5:11831.428 6:16379.374 7:16194.922 #
4.0848474115334622e-008 1:0 2:6 3:106.36449 4:701 5:8087.438 6:9279.7236 7:4745.2827 #
-4.0848474115334622e-008 1:2 2:1 3:98.942848 4:82.130074 5:13566.798 6:15172.572 7:11423.946 #
4.0848474115334622e-008 1:3 2:5 3:112.42296 4:233 5:8087.438 6:9279.7236 7:4745.2827 #
-4.0848474115334622e-008 1:7 2:0 3:0 4:0 5:7160.936 6:13566.798 7:15172.572 #
4.0848474115334622e-008 1:0 2:3 3:354.29846 4:104 5:41733.781 6:35334.039 7:8979.5215 #
-4.0848474115334622e-008 1:1 2:0 3:184.29048 4:168.90057 5:25586.002 6:23309.416 7:24373.83 #
4.0848474115334622e-008 1:1 2:6 3:1325 4:63.667229 5:9062.6514 6:9712.5146 7:3695.0015 #
-4.0848474115334622e-008 1:2 2:0 3:0 4:44.415829 5:20834.104 6:12557.965 7:5611.7383 #
4.0848474115334622e-008 1:4 2:6 3:808 4:1370 5:7763.2051 6:13627.521 7:20834.104 #
-4.0848474115334622e-008 1:7 2:1 3:0 4:0 5:16194.922 6:13861.269 7:4517.2153 #
4.0848474115334622e-008 1:1 2:6 3:1153 4:227 5:9534.2051 6:3498.4363 7:3157.4666 #
-4.0848474115334622e-008 1:7 2:1 3:106.28545 4:0 5:15172.572 6:11423.946 7:3781.2725 #
4.0848474115334622e-008 1:1 2:5 3:144.2762 4:127.71395 5:13664.028 6:14768.524 7:12930.053 #
-4.0848474115334622e-008 1:6 2:1 3:0 4:110.59453 5:11831.428 6:16379.374 7:16194.922 #
4.0848474115334622e-008 1:1 2:6 3:90.608009 4:613 5:8243.7627 6:9882.8076 7:7350.7192 #
-4.0848474115334622e-008 1:5 2:1 3:82 4:153 5:4443.2471 6:6299.3711 7:3991.3462 #
4.0848474115334622e-008 1:0 2:6 3:1179 4:60.444908 5:9675.248 6:7359.373 7:3231.9216 #
-4.0848474115334622e-008 1:6 2:1 3:11 4:26.810373 5:15172.572 6:11423.946 7:3781.2725 #
4.0848474115334622e-008 1:3 2:6 3:77.675369 4:942 5:5469.4375 6:5856.1021 7:7454.1318 #
-4.0848474115334622e-008 1:1 2:3 3:13 4:303 5:291.47256 6:1357.9989 7:4329.9814 #
4.0848474115334622e-008 1:2 2:5 3:167.28693 4:65.713959 5:12930.053 6:8926.6504 7:4340.8403 #
-4.0848474115334622e-008 1:4 2:2 3:0 4:42.746311 5:20834.104 6:12557.965 7:5611.7383 #
4.0848474115334622e-008 1:0 2:7 3:294 4:64.016693 5:4443.2471 6:6299.3711 7:3991.3462 #
-4.0848474115334622e-008 1:1 2:0 3:0 4:0 5:46.656425 6:3767.2915 7:111.0256 #
4.0848474115334622e-008 1:2 2:6 3:642 4:499 5:7864.4189 6:7326.0947 7:6085.8525 #
-4.0848474115334622e-008 1:6 2:0 3:60.005112 4:105.16737 5:8324.292 6:13664.028 7:14768.524 #
4.0848474115334622e-008 1:1 2:6 3:74.827133 4:84.038544 5:3895.7 6:11137.224 7:7047.7842 #
-4.0848474115334622e-008 1:5 2:1 3:6 4:31.25456 5:12930.053 6:8926.6504 7:4340.8403 #
4.0848474115334622e-008 1:1 2:6 3:546 4:152.49806 5:4049.3328 6:8820.1963 7:8867.6455 #
-4.0848474115334622e-008 1:6 2:0 3:0 4:110.59329 5:11831.428 6:16379.374 7:16194.922 #
4.0848474115334622e-008 1:3 2:6 3:474 4:96.886307 5:6236.7656 6:9675.248 7:7359.373 #
-4.0848474115334622e-008 1:1 2:5 3:268 4:0.59147131 5:3767.2915 6:111.0256 7:31.442074 #
4.0848474115334622e-008 1:3 2:6 3:974 4:101.02756 5:8820.1963 6:8867.6455 7:8484.083 #
-4.0848474115334622e-008 1:4 2:2 3:96.945602 4:80.974213 5:13566.798 6:15172.572 7:11423.946 #
4.0848474115334622e-008 1:0 2:6 3:546 4:81.01545 5:4469.6655 6:5173.2158 7:5904.7783 #
-4.0848474115334622e-008 1:5 2:2 3:6 4:3 5:13664.028 6:14768.524 7:12930.053 #
4.0848474115334622e-008 1:5 2:5 3:215.63525 4:826 5:24373.83 6:47994.355 7:41733.781 #
-4.0848474115334622e-008 1:0 2:0 3:14 4:188.89664 5:6176.582 6:10507.707 7:25586.002 #
4.0848474115334622e-008 1:2 2:6 3:763 4:49.806934 5:7224.1665 6:6294.9863 7:2278.4575 #
-4.0848474115334622e-008 1:6 2:0 3:0 4:82.124733 5:13566.798 6:15172.572 7:11423.946 #
4.0848474115334622e-008 1:0 2:5 3:540 4:990 5:7763.2051 6:13627.521 7:20834.104 #
-4.0848474115334622e-008 1:4 2:2 3:86.437538 4:0 5:11831.428 6:16379.374 7:16194.922 #
4.0848474115334622e-008 1:1 2:6 3:980 4:777 5:8087.438 6:9279.7236 7:4745.2827 #
-4.0848474115334622e-008 1:2 2:2 3:23 4:7 5:16379.374 6:16194.922 7:13861.269 #
4.0848474115334622e-008 1:4 2:6 3:446 4:142.07462 5:13664.028 6:14768.524 7:12930.053 #
-4.0848474115334622e-008 1:6 2:2 3:0 4:97.356339 5:16379.374 6:16194.922 7:13861.269 #
4.0848474115334622e-008 1:2 2:6 3:92.416534 4:249 5:5173.2158 6:5904.7783 7:3178.3979 #
-4.0848474115334622e-008 1:5 2:1 3:0 4:7 5:7825.0635 6:9534.2051 7:3498.4363 #
4.0848474115334622e-008 1:4 2:6 3:472 4:1638 5:6176.582 6:10507.707 7:25586.002 #
-4.0848474115334622e-008 1:0 2:1 3:0 4:151.07793 5:7763.2051 6:13627.521 7:20834.104 #
4.0848474115334622e-008 1:1 2:6 3:1269 4:414 5:16194.922 6:13861.269 7:4517.2153 #
-4.0848474115334622e-008 1:7 2:0 3:0 4:80.96875 5:13566.798 6:15172.572 7:11423.946 #
4.0848474115334622e-008 1:4 2:6 3:65.775955 4:80.83429 5:4890.5239 6:6580.8569 7:6622.5566 #
-4.0848474115334622e-008 1:3 2:0 3:0 4:188.74954 5:6176.582 6:10507.707 7:25586.002 #
4.0848474115334622e-008 1:1 2:6 3:69.966469 4:692 5:4343.3638 6:10027.052 7:7906.8276 #
-4.0848474115334622e-008 1:6 2:2 3:97.551949 4:93.245972 5:13664.028 6:14768.524 7:12930.053 #
4.0848474115334622e-008 1:2 2:6 3:421 4:1049 5:5624.834 6:6236.7656 7:9675.248 #
-4.0848474115334622e-008 1:7 2:4 3:7.3081746 4:0 5:1164.1793 6:3561.5342 7:51.633495 #
4.0848474115334622e-008 1:0 2:7 3:249 4:791 5:4681.2368 6:11831.428 7:16379.374 #
-4.0848474115334622e-008 1:7 2:3 3:0 4:147.97356 5:7763.2051 6:13627.521 7:20834.104 #
4.0848474115334622e-008 1:1 2:6 3:56.668015 4:994 5:3515.3901 6:6863.5869 7:7825.0635 #
-4.0848474115334622e-008 1:1 2:0 3:25 4:32 5:1070.0177 6:6707.2271 7:6374.5708 #
4.0848474115334622e-008 1:5 2:5 3:849 4:1003 5:47994.355 6:41733.781 7:35334.039 #
-4.0848474115334622e-008 1:7 2:7 3:185.56012 4:14 5:25586.002 6:23309.416 7:24373.83 #
4.0848474115334622e-008 1:5 2:7 3:166 4:267 5:3160.4509 6:8324.292 7:13664.028 #
-4.0848474115334622e-008 1:5 2:2 3:281 4:0 5:10507.707 6:25586.002 7:23309.416 #
4.0848474115334622e-008 1:3 2:5 3:77.602333 4:737 5:4354.2021 6:9992.2959 7:8223.0615 #
-4.0848474115334622e-008 1:7 2:3 3:4 4:7 5:16379.374 6:16194.922 7:13861.269 #
4.0848474115334622e-008 1:1 2:6 3:249 4:91.842934 5:6236.7656 6:9675.248 7:7359.373 #
-4.0848474115334622e-008 1:2 2:0 3:7.3082094 4:0 5:1164.1793 6:3561.5342 7:51.633495 #
4.0848474115334622e-008 1:2 2:3 3:208.32117 4:1284 5:24373.83 6:47994.355 7:41733.781 #
-4.0848474115334622e-008 1:7 2:1 3:43.612381 4:183.8018 5:6176.582 6:10507.707 7:25586.002 #
4.0848474115334622e-008 1:0 2:3 3:34.691936 4:387 5:1070.0177 6:6707.2271 7:6374.5708 #
-4.0848474115334622e-008 1:7 2:4 3:73 4:162.15872 5:10507.707 6:25586.002 7:23309.416 #
4.0848474115334622e-008 1:4 2:6 3:246 4:899 5:4718.0464 6:7763.2051 7:13627.521 #
-4.0848474115334622e-008 1:7 2:1 3:7.3043823 4:0 5:1164.1793 6:3561.5342 7:51.633495 #
4.0848474115334622e-008 1:0 2:3 3:206.53706 4:354.29846 5:24373.83 6:47994.355 7:41733.781 #
-4.0848474115334622e-008 1:5 2:2 3:11 4:98.99971 5:16379.374 6:16194.922 7:13861.269 #
4.0848474115334622e-008 1:3 2:6 3:52.31242 4:393 5:3408.1821 6:7864.4189 7:7326.0947 #
-4.0848474115334622e-008 1:5 2:0 3:31.525734 4:0 5:4343.3638 6:10027.052 7:7906.8276 #
4.0848474115334622e-008 1:0 2:5 3:798 4:1035 5:13664.028 6:14768.524 7:12930.053 #
-4.0848474115334622e-008 1:6 2:2 3:4 4:0 5:11831.428 6:16379.374 7:16194.922 #
4.0848474115334622e-008 1:0 2:5 3:105.82109 4:239.95789 5:10507.707 6:25586.002 7:23309.416 #
-4.0848474115334622e-008 1:7 2:3 3:0 4:14 5:10507.707 6:25586.002 7:23309.416 #
4.0848474115334622e-008 1:0 2:5 3:229 4:816 5:8324.292 6:13664.028 7:14768.524 #
-4.0848474115334622e-008 1:7 2:7 3:3 4:29 5:13566.798 6:15172.572 7:11423.946 #
4.0848474115334622e-008 1:4 2:6 3:624 4:375 5:5438.9741 6:8243.7627 7:9882.8076 #
-4.0848474115334622e-008 1:6 2:1 3:0 4:58.624325 5:4354.2021 6:9992.2959 7:8223.0615 #
4.0848474115334622e-008 1:0 2:7 3:238 4:128.33932 5:13627.521 6:20834.104 7:12557.965 #
-4.0848474115334622e-008 1:4 2:0 3:0 4:4 5:11831.428 6:16379.374 7:16194.922 #
4.0848474115334622e-008 1:0 2:7 3:841 4:761 5:11831.428 6:16379.374 7:16194.922 #
-4.0848474115334622e-008 1:7 2:1 3:0 4:0 5:11831.428 6:16379.374 7:16194.922 #
4.0848474115334622e-008 1:1 2:7 3:487 4:129.62558 5:13664.028 6:14768.524 7:12930.053 #
-4.0848474115334622e-008 1:4 2:2 3:0 4:0 5:16379.374 6:16194.922 7:13861.269 #
4.0848474115334622e-008 1:0 2:7 3:390 4:590 5:10507.707 6:25586.002 7:23309.416 #
-4.0848474115334622e-008 1:3 2:0 3:0 4:147.97385 5:7763.2051 6:13627.521 7:20834.104 #
4.0848474115334622e-008 1:1 2:6 3:867 4:972 5:9279.7236 6:4745.2827 7:3507.8733 #
-4.0848474115334622e-008 1:5 2:0 3:0 4:26.233065 5:15172.572 6:11423.946 7:3781.2725 #
4.0848474115334622e-008 1:0 2:6 3:1239 4:493 5:8481.25 6:7224.1665 7:6294.9863 #
-4.0848474115334622e-008 1:4 2:1 3:0 4:57.965137 5:4354.2021 6:9992.2959 7:8223.0615 #
4.0848474115334622e-008 1:5 2:6 3:554 4:368 5:47994.355 6:41733.781 7:35334.039 #
-4.0848474115334622e-008 1:2 2:0 3:0 4:0 5:7763.2051 6:13627.521 7:20834.104 #
4.0848474115334622e-008 1:4 2:6 3:263 4:366 5:3408.1821 6:7864.4189 7:7326.0947 #
-4.0848474115334622e-008 1:2 2:1 3:9.0993729 4:42.784451 5:1464.8287 6:7084.2524 7:6154.4097 #
4.0848474115334622e-008 1:1 2:3 3:1216 4:99.256126 5:41733.781 6:35334.039 7:8979.5215 #
-4.0848474115334622e-008 1:5 2:1 3:85.27726 4:14 5:11831.428 6:16379.374 7:16194.922 #
4.0848474115334622e-008 1:3 2:6 3:380 4:987 5:3160.4509 6:8324.292 7:13664.028 #
-4.0848474115334622e-008 1:1 2:0 3:3 4:106.29018 5:7160.936 6:13566.798 7:15172.572 #
4.0848474115334622e-008 1:1 2:5 3:1347 4:290 5:15172.572 6:11423.946 7:3781.2725 #
-4.0848474115334622e-008 1:1 2:0 3:65.462189 4:0 5:9062.6514 6:9712.5146 7:3695.0015 #
4.0848474115334622e-008 1:0 2:7 3:791 4:131.34058 5:16379.374 6:16194.922 7:13861.269 #
-4.0848474115334622e-008 1:7 2:1 3:0 4:0 5:16379.374 6:16194.922 7:13861.269 #
4.0848474115334622e-008 1:3 2:6 3:928 4:80.710945 5:8243.7627 6:9882.8076 7:7350.7192 #
-4.0848474115334622e-008 1:5 2:3 3:64.23188 4:0 5:9062.6514 6:9712.5146 7:3695.0015 #
4.0848474115334622e-008 1:2 2:6 3:1083 4:857 5:8481.25 6:7224.1665 7:6294.9863 #
-4.0848474115334622e-008 1:6 2:6 3:39 4:12 5:9062.6514 6:9712.5146 7:3695.0015 #
4.0848474115334622e-008 1:0 2:6 3:302 4:76.811691 5:7864.4189 6:7326.0947 7:6085.8525 #
-4.0848474115334622e-008 1:7 2:2 3:0 4:0 5:7825.0635 6:9534.2051 7:3498.4363 #
4.0848474115334622e-008 1:2 2:6 3:1376 4:139 5:13861.269 6:4517.2153 7:1846.736 #
-4.0848474115334622e-008 1:7 2:3 3:0 4:0 5:15172.572 6:11423.946 7:3781.2725 #
4.0848474115334622e-008 1:2 2:6 3:76.430115 4:117.82462 5:6742.9082 6:4681.2368 7:11831.428 #
-4.0848474115334622e-008 1:7 2:3 3:0 4:0 5:7160.936 6:13566.798 7:15172.572 #
4.0848474115334622e-008 1:0 2:5 3:243 4:76.387589 5:5856.1021 6:7454.1318 7:6778.0342 #
-4.0848474115334622e-008 1:6 2:1 3:15 4:95.343498 5:13664.028 6:14768.524 7:12930.053 #
4.0848474115334622e-008 1:0 2:6 3:441 4:505 5:4857.5962 6:5772.9434 7:4958.8623 #
-4.0848474115334622e-008 1:4 2:0 3:0 4:97.496635 5:16379.374 6:16194.922 7:13861.269 #
4.0848474115334622e-008 1:2 2:3 3:1284 4:163 5:41733.781 6:35334.039 7:8979.5215 #
-4.0848474115334622e-008 1:7 2:3 3:14 4:36 5:25586.002 6:23309.416 7:24373.83 #
4.0848474115334622e-008 1:2 2:6 3:59.461025 4:92.416534 5:3829.4893 6:4469.6655 7:5173.2158 #
-4.0848474115334622e-008 1:7 2:1 3:0 4:42.742088 5:20834.104 6:12557.965 7:5611.7383 #
4.0848474115334622e-008 1:4 2:6 3:89 4:80.577141 5:6236.7656 6:9675.248 7:7359.373 #
-4.0848474115334622e-008 1:6 2:7 3:7.2214937 4:0 5:1164.1793 6:3561.5342 7:51.633495 #
4.0848474115334622e-008 1:0 2:7 3:590 4:2137 5:23309.416 6:24373.83 7:47994.355 #
-4.0848474115334622e-008 1:2 2:1 3:0 4:23 5:25586.002 6:23309.416 7:24373.83 #
4.0848474115334622e-008 1:0 2:5 3:988 4:56.626328 5:9062.6514 6:9712.5146 7:3695.0015 #
-4.0848474115334622e-008 1:6 2:2 3:0 4:147.97331 5:7763.2051 6:13627.521 7:20834.104 #
4.0848474115334622e-008 1:4 2:6 3:61.237465 4:80.12365 5:4046.0759 6:4945.6357 7:6101.4565 #
-4.0848474115334622e-008 1:4 2:0 3:108.45219 4:62.81284 5:14768.524 6:12930.053 7:8926.6504 #
4.0848474115334622e-008 1:2 2:6 3:59.223843 4:1222 5:4343.3638 6:10027.052 7:7906.8276 #
-4.0848474115334622e-008 1:4 2:2 3:7.2173066 4:0 5:1164.1793 6:3561.5342 7:51.633495 #
4.0848474115334622e-008 1:3 2:5 3:819 4:61.333363 5:9992.2959 6:8223.0615 7:3430.1667 #
-4.0848474115334622e-008 1:1 2:0 3:0 4:105.17235 5:8324.292 6:13664.028 7:14768.524 #
4.0848474115334622e-008 1:4 2:5 3:540 4:246 5:20834.104 6:12557.965 7:5611.7383 #
-4.0848474115334622e-008 1:5 2:2 3:35 4:0 5:20834.104 6:12557.965 7:5611.7383 #
4.0848474115334622e-008 1:3 2:5 3:69.262978 4:90.465553 5:4343.3638 6:10027.052 7:7906.8276 #
-4.0848474115334622e-008 1:6 2:0 3:7.2128448 4:0 5:1164.1793 6:3561.5342 7:51.633495 #
4.0848474115334622e-008 1:4 2:6 3:78.214951 4:412 5:7160.936 6:13566.798 7:15172.572 #
-4.0848474115334622e-008 1:7 2:1 3:55.901634 4:0 5:7763.2051 6:13627.521 7:20834.104 #
4.0848474115334622e-008 1:1 2:6 3:1712 4:131 5:8484.083 6:4205.0996 7:1634.2598 #
-4.0848474115334622e-008 1:6 2:1 3:0 4:0 5:7825.0635 6:9534.2051 7:3498.4363 #
4.0848474115334622e-008 1:1 2:5 3:75.134972 4:922 5:4681.2368 6:11831.428 7:16379.374 #
-4.0848474115334622e-008 1:6 2:1 3:51.419502 4:11 5:7160.936 6:13566.798 7:15172.572 #
4.0848474115334622e-008 1:5 2:6 3:340 4:60.711971 5:4278.5552 6:6047.2798 7:4354.2021 #
-4.0848474115334622e-008 1:7 2:5 3:0 4:0 5:1164.1793 6:3561.5342 7:51.633495 #
4.0848474115334622e-008 1:1 2:5 3:102.9447 4:1017 5:10507.707 6:25586.002 7:23309.416 #
-4.0848474115334622e-008 1:4 2:2 3:0 4:0 5:7763.2051 6:13627.521 7:20834.104 #
4.0848474115334622e-008 1:0 2:5 3:61.64798 4:450 5:3895.7 6:11137.224 7:7047.7842 #
-4.0848474115334622e-008 1:5 2:0 3:3 4:0 5:13566.798 6:15172.572 7:11423.946 #
4.0848474115334622e-008 1:0 2:6 3:986 4:342 5:9992.2959 6:8223.0615 7:3430.1667 #
-4.0848474115334622e-008 1:4 2:2 3:0 4:24.693501 5:9062.6514 6:9712.5146 7:3695.0015 #
4.0848474115334622e-008 1:4 2:6 3:412 4:56.556488 5:15172.572 6:11423.946 7:3781.2725 #
-4.0848474115334622e-008 1:6 2:3 3:0 4:3 5:13566.798 6:15172.572 7:11423.946 #
4.0848474115334622e-008 1:3 2:6 3:715 4:107.95605 5:7413.7197 6:7351.4438 7:8481.25 #
-4.0848474115334622e-008 1:5 2:3 3:0 4:0 5:1164.1793 6:3561.5342 7:51.633495 #
4.0848474115334622e-008 1:2 2:2 3:1298 4:87.781052 5:41733.781 6:35334.039 7:8979.5215 #
-4.0848474115334622e-008 1:2 2:0 3:0 4:0 5:25586.002 6:23309.416 7:24373.83 #
4.0848474115334622e-008 1:3 2:6 3:440 4:715 5:4932.7153 6:7413.7197 7:7351.4438 #
-4.0848474115334622e-008 1:7 2:4 3:0 4:13 5:20834.104 6:12557.965 7:5611.7383 #
4.0848474115334622e-008 1:3 2:6 3:430 4:173.82065 5:6025.7842 6:7160.936 7:13566.798 #
-4.0848474115334622e-008 1:7 2:3 3:0 4:0 5:13566.798 6:15172.572 7:11423.946 #
4.0848474115334622e-008 1:1 2:5 3:72.167854 4:55.407665 5:6374.5708 6:7100.8442 7:3899.8806 #
-4.0848474115334622e-008 1:5 2:2 3:0 4:0 5:1164.1793 6:3561.5342 7:51.633495 #
4.0848474115334622e-008 1:3 2:6 3:2026 4:1130 5:16379.374 6:16194.922 7:13861.269 #
-4.0848474115334622e-008 1:6 2:1 3:0 4:0 5:20834.104 6:12557.965 7:5611.7383 #
4.0848474115334622e-008 1:0 2:6 3:710 4:561 5:9882.8076 6:7350.7192 7:4213.9063 #
-4.0848474115334622e-008 1:7 2:2 3:97.445366 4:0 5:13664.028 6:14768.524 7:12930.053 #
4.0848474115334622e-008 1:0 2:6 3:97.964813 4:713 5:8243.7627 6:9882.8076 7:7350.7192 #
-4.0848474115334622e-008 1:6 2:0 3:0 4:0 5:6622.5566 6:8087.438 7:9279.7236 #
4.0848474115334622e-008 1:4 2:5 3:1076 4:267.50763 5:25586.002 6:23309.416 7:24373.83 #
-4.0848474115334622e-008 1:3 2:0 3:12 4:0 5:9062.6514 6:9712.5146 7:3695.0015 #
4.0848474115334622e-008 1:3 2:5 3:77.824921 4:274 5:7224.1665 6:6294.9863 7:2278.4575 #
-4.0848474115334622e-008 1:7 2:2 3:0 4:24.690516 5:9062.6514 6:9712.5146 7:3695.0015 #
4.0848474115334622e-008 1:4 2:6 3:1082 4:469 5:10418.215 6:9062.6514 7:9712.5146 #
-4.0848474115334622e-008 1:3 2:0 3:0 4:93.350189 5:13664.028 6:14768.524 7:12930.053 #
4.0848474115334622e-008 1:0 2:6 3:1067 4:57.504246 5:10027.052 6:7906.8276 7:3036.5181 #
-4.0848474115334622e-008 1:7 2:0 3:0 4:0 5:9062.6514 6:9712.5146 7:3695.0015 #
4.0848474115334622e-008 1:5 2:6 3:921 4:309 5:10507.707 6:25586.002 7:23309.416 #
-4.0848474115334622e-008 1:7 2:4 3:86.647095 4:110.97998 5:11831.428 6:16379.374 7:16194.922 #
4.0848474115334622e-008 1:0 2:6 3:910 4:442 5:9279.7236 6:4745.2827 7:3507.8733 #
-4.0848474115334622e-008 1:5 2:1 3:3 4:6 5:13664.028 6:14768.524 7:12930.053 #
4.0848474115334622e-008 1:5 2:7 3:63 4:216 5:7000.1299 6:6095.8589 7:5941.9795 #
-4.0848474115334622e-008 1:6 2:1 3:0 4:24.690275 5:9062.6514 6:9712.5146 7:3695.0015 #
4.0848474115334622e-008 1:2 2:5 3:60.989227 4:677 5:3895.7 6:11137.224 7:7047.7842 #
-4.0848474115334622e-008 1:2 2:0 3:9.0981379 4:42.783215 5:1464.8287 6:7084.2524 7:6154.4097 #
4.0848474115334622e-008 1:1 2:6 3:275 4:980 5:6580.8569 6:6622.5566 7:8087.438 #
-4.0848474115334622e-008 1:7 2:3 3:40.951824 4:64.556114 5:5397.7905 6:10418.215 7:9062.6514 #
4.0848474115334622e-008 1:4 2:5 3:487 4:78.363586 5:3895.7 6:11137.224 7:7047.7842 #
-4.0848474115334622e-008 1:5 2:0 3:39.696232 4:65.20118 5:5397.7905 6:10418.215 7:9062.6514 #
4.0848474115334622e-008 1:3 2:5 3:455 4:1556 5:3160.4509 6:8324.292 7:13664.028 #
-4.0848474115334622e-008 1:2 2:0 3:31.936842 4:9 5:4354.2021 6:9992.2959 7:8223.0615 #
4.0848474115334622e-008 1:1 2:6 3:845 4:335 5:10027.052 6:7906.8276 7:3036.5181 #
-4.0848474115334622e-008 1:5 2:1 3:59.025391 4:32.497654 5:8087.438 6:9279.7236 7:4745.2827 #
4.0848474115334622e-008 1:1 2:5 3:78.423309 4:207 5:7084.2524 6:6154.4097 7:3455.1846 #
-4.0848474115334622e-008 1:4 2:0 3:71.233444 4:21.734829 5:9992.2959 6:8223.0615 7:3430.1667 #
4.0848474115334622e-008 1:2 2:6 3:55.264679 4:396 5:4214.2817 6:7000.1299 7:6095.8589 #
-4.0848474115334622e-008 1:2 2:1 3:51 4:62.712368 5:14768.524 6:12930.053 7:8926.6504 #
4.0848474115334622e-008 1:3 2:5 3:1094 4:112.42296 5:6580.8569 6:6622.5566 7:8087.438 #
-4.0848474115334622e-008 1:2 2:0 3:0 4:31.742378 5:8087.438 6:9279.7236 7:4745.2827 #
4.0848474115334622e-008 1:1 2:6 3:65.239586 4:72.153763 5:4469.6655 6:5173.2158 7:5904.7783 #
-4.0848474115334622e-008 1:6 2:3 3:50.121948 4:0 5:7160.936 6:13566.798 7:15172.572 #
4.0848474115334622e-008 1:2 2:5 3:56.603603 4:80.994225 5:4343.3638 6:10027.052 7:7906.8276 #
-4.0848474115334622e-008 1:7 2:2 3:62.86702 4:0 5:8867.6455 6:8484.083 7:4205.0996 #
4.0848474115334622e-008 1:3 2:5 3:1051 4:333 5:9062.6514 6:9712.5146 7:3695.0015 #
-4.0848474115334622e-008 1:1 2:1 3:105.27917 4:0 5:14768.524 6:12930.053 7:8926.6504 #
4.0848474115334622e-008 1:0 2:6 3:231 4:89.749176 5:4278.5552 6:6047.2798 7:4354.2021 #
-4.0848474115334622e-008 1:6 2:1 3:0 4:31.601366 5:8087.438 6:9279.7236 7:4745.2827 #
4.0848474115334622e-008 1:4 2:4 3:329.40686 4:132 5:41733.781 6:35334.039 7:8979.5215 #
-4.0848474115334622e-008 1:7 2:2 3:0 4:0 5:14768.524 6:12930.053 7:8926.6504 #
4.0848474115334622e-008 1:2 2:5 3:68.231049 4:91.702133 5:5469.4375 6:5856.1021 7:7454.1318 #
-4.0848474115334622e-008 1:5 2:0 3:0 4:0 5:20834.104 6:12557.965 7:5611.7383 #
4.0848474115334622e-008 1:2 2:6 3:596 4:2036 5:4718.0464 6:7763.2051 7:13627.521 #
-4.0848474115334622e-008 1:7 2:2 3:9.0956316 4:42.780708 5:1464.8287 6:7084.2524 7:6154.4097 #
4.0848474115334622e-008 1:2 2:5 3:703 4:450 5:11137.224 6:7047.7842 7:5691.6919 #
-4.0848474115334622e-008 1:1 2:0 3:105.17235 4:0 5:14768.524 6:12930.053 7:8926.6504 #
4.0848474115334622e-008 1:2 2:4 3:326 4:435 5:6707.2271 6:6374.5708 7:7100.8442 #
-4.0848474115334622e-008 1:5 2:2 3:3 4:31.670593 5:12930.053 6:8926.6504 7:4340.8403 #
-4.0848474115334622e-008 1:7 2:0 3:59.022087 4:0 5:8087.438 6:9279.7236 7:4745.2827 #
4.0848474115334622e-008 1:1 2:7 3:315 4:505 5:6025.7842 6:7160.936 7:13566.798 #
4.0848474115334622e-008 1:0 2:6 3:123.68039 4:34.19437 5:8926.6504 6:4340.8403 7:1386.9575 #
4.0848474115334622e-008 1:4 2:6 3:568 4:614 5:4343.3638 6:10027.052 7:7906.8276 #
-4.0848474115334622e-008 1:4 2:2 3:3 4:0 5:13664.028 6:14768.524 7:12930.053 #
-4.0848474115334622e-008 1:5 2:0 3:60.006107 4:9 5:8324.292 6:13664.028 7:14768.524 #
4.0848474115334622e-008 1:3 2:5 3:72.594223 4:1143 5:5438.9741 6:8243.7627 7:9882.8076 #
-4.0848474115334622e-008 1:6 2:1 3:0 4:0 5:7763.2051 6:13627.521 7:20834.104 #
4.0848474115334622e-008 1:0 2:7 3:138.644 4:132.76601 5:13664.028 6:14768.524 7:12930.053 #
-4.0848474115334622e-008 1:7 2:0 3:0 4:0 5:13664.028 6:14768.524 7:12930.053 #
4.0848474115334622e-008 1:3 2:4 3:41.135674 4:298 5:2310.3887 6:3563.5684 7:4096.3892 #
-4.0848474115334622e-008 1:5 2:0 3:7.1338043 4:45.553936 5:1070.0177 6:6707.2271 7:6374.5708 #
4.0848474115334622e-008 1:4 2:6 3:107.44209 4:72.556175 5:11137.224 6:7047.7842 7:5691.6919 #
-4.0848474115334622e-008 1:6 2:0 3:105.16737 4:0 5:14768.524 6:12930.053 7:8926.6504 #
4.0848474115334622e-008 1:1 2:5 3:224 4:502 5:4751.8096 6:6025.7842 7:7160.936 #
-4.0848474115334622e-008 1:7 2:0 3:0 4:0 5:7763.2051 6:13627.521 7:20834.104 #
4.0848474115334622e-008 1:1 2:5 3:106.66382 4:247 5:11137.224 6:7047.7842 7:5691.6919 #
-4.0848474115334622e-008 1:7 2:0 3:0 4:63.979137 5:14768.524 6:12930.053 7:8926.6504 #
4.0848474115334622e-008 1:2 2:6 3:200 4:1491 5:2694.259 6:4049.3328 7:8820.1963 #
-4.0848474115334622e-008 1:5 2:0 3:93.561241 4:0 5:12930.053 6:8926.6504 7:4340.8403 #
4.0848474115334622e-008 1:1 2:5 3:623 4:173 5:9062.6514 6:9712.5146 7:3695.0015 #
-4.0848474115334622e-008 1:6 2:2 3:93.245972 4:31.565899 5:12930.053 6:8926.6504 7:4340.8403 #
4.0848474115334622e-008 1:1 2:6 3:491 4:140.58379 5:4751.8096 6:6025.7842 7:7160.936 #
-4.0848474115334622e-008 1:3 2:2 3:112.17995 4:25 5:16194.922 6:13861.269 7:4517.2153 #
4.0848474115334622e-008 1:3 2:5 3:161 4:84.595627 5:3870.0371 6:5469.4375 7:5856.1021 #
-4.0848474115334622e-008 1:6 2:0 3:42.91597 4:53.171394 5:6236.7656 6:9675.248 7:7359.373 #
4.0848474115334622e-008 1:0 2:5 3:92.336609 4:88.169022 5:8820.1963 6:8867.6455 7:8484.083 #
-4.0848474115334622e-008 1:7 2:0 3:61.314182 4:0 5:8324.292 6:13664.028 7:14768.524 #
4.0848474115334622e-008 1:0 2:5 3:416 4:159 5:7825.0635 6:9534.2051 7:3498.4363 #
-4.0848474115334622e-008 1:7 2:5 3:44 4:31.893328 5:16194.922 6:13861.269 7:4517.2153 #
4.0848474115334622e-008 1:3 2:6 3:89.110023 4:55.831585 5:9062.6514 6:9712.5146 7:3695.0015 #
-4.0848474115334622e-008 1:3 2:1 3:110.98213 4:31.892344 5:16194.922 6:13861.269 7:4517.2153 #
4.0848474115334622e-008 1:2 2:5 3:29.442081 4:70.578682 5:1070.0177 6:6707.2271 7:6374.5708 #
-4.0848474115334622e-008 1:7 2:3 3:85.27774 4:0 5:11831.428 6:16379.374 7:16194.922 #
4.0848474115334622e-008 1:1 2:6 3:1854 4:52.043083 5:12557.965 6:5611.7383 7:3021.7092 #
-4.0848474115334622e-008 1:7 2:1 3:96.900543 4:0 5:12930.053 6:8926.6504 7:4340.8403 #
4.0848474115334622e-008 1:1 2:3 3:57.161644 4:178 5:4751.8096 6:6025.7842 7:7160.936 #
-4.0848474115334622e-008 1:3 2:0 3:3 4:43.659161 5:1464.8287 6:7084.2524 7:6154.4097 #
4.0848474115334622e-008 1:0 2:3 3:543 4:502 5:5354.627 6:6266.2939 7:4807.2144 #
-4.0848474115334622e-008 1:4 2:2 3:141 4:35.866409 5:4857.5962 6:5772.9434 7:4958.8623 #
4.0848474115334622e-008 1:2 2:6 3:276 4:870 5:3408.1821 6:7864.4189 7:7326.0947 #
-4.0848474115334622e-008 1:3 2:0 3:39.544361 4:12 5:5397.7905 6:10418.215 7:9062.6514 #
4.0848474115334622e-008 1:4 2:5 3:295 4:519 5:8243.7627 6:9882.8076 7:7350.7192 #
-4.0848474115334622e-008 1:5 2:0 3:57.9603 4:52.787727 5:8243.7627 6:9882.8076 7:7350.7192 #
4.0848474115334622e-008 1:2 2:5 3:88.077919 4:56.826244 5:9062.6514 6:9712.5146 7:3695.0015 #
-4.0848474115334622e-008 1:6 2:2 3:72.949043 4:22.413637 5:9992.2959 6:8223.0615 7:3430.1667 #
4.0848474115334622e-008 1:4 2:6 3:56.662636 4:74.228081 5:4278.5552 6:6047.2798 7:4354.2021 #
-4.0848474115334622e-008 1:2 2:0 3:0 4:34.405533 5:5354.627 6:6266.2939 7:4807.2144 #
4.0848474115334622e-008 1:3 2:6 3:107.95605 4:395 5:8481.25 6:7224.1665 7:6294.9863 #
-4.0848474115334622e-008 1:4 2:2 3:0 4:0 5:14768.524 6:12930.053 7:8926.6504 #
4.0848474115334622e-008 1:4 2:6 3:60.072273 4:55.582745 5:5355.7749 6:6945.1152 7:3895.7 #
-4.0848474115334622e-008 1:7 2:3 3:105.37937 4:12 5:14768.524 6:12930.053 7:8926.6504 #
4.0848474115334622e-008 1:4 2:6 3:184 4:789 5:5194.6855 6:5438.9741 7:8243.7627 #
-4.0848474115334622e-008 1:6 2:1 3:32.749451 4:0 5:4681.2368 6:11831.428 7:16379.374 #
4.0848474115334622e-008 1:1 2:5 3:235 4:623 5:5397.7905 6:10418.215 7:9062.6514 #
-4.0848474115334622e-008 1:7 2:2 3:0 4:114 5:3064.0151 6:4637.7212 7:3228.0615 #
4.0848474115334622e-008 1:0 2:6 3:471 4:49.898319 5:7454.1318 6:6778.0342 7:3316.1152 #
-4.0848474115334622e-008 1:6 2:0 3:0 4:24.689039 5:9062.6514 6:9712.5146 7:3695.0015 #
4.0848474115334622e-008 1:6 2:4 3:51.524597 4:6 5:4330.2002 6:3689.0508 7:2217.9277 #
-4.0848474115334622e-008 1:5 2:1 3:292 4:0 5:8324.292 6:13664.028 7:14768.524 #
4.0848474115334622e-008 1:2 2:7 3:66 4:65.919632 5:1464.8287 6:7084.2524 7:6154.4097 #
-4.0848474115334622e-008 1:7 2:0 3:33.415459 4:0 5:4354.2021 6:9992.2959 7:8223.0615 #
-4.0848474115334622e-008 1:6 2:7 3:21 4:13 5:8087.438 6:9279.7236 7:4745.2827 #
-4.0848474115334622e-008 1:7 2:2 3:72.948029 4:0 5:9992.2959 6:8223.0615 7:3430.1667 #
-4.0848474115334622e-008 1:6 2:1 3:0 4:188.74776 5:6176.582 6:10507.707 7:25586.002 #
4.0848474115334622e-008 1:1 2:6 3:324 4:234.59326 5:7763.2051 6:13627.521 7:20834.104 #
-4.0848474115334622e-008 1:6 2:3 3:44.425301 4:59 5:6176.582 6:10507.707 7:25586.002 #
4.0848474115334622e-008 1:0 2:5 3:163.73026 4:261 5:15172.572 6:11423.946 7:3781.2725 #
-4.0848474115334622e-008 1:6 2:2 3:97.356339 4:12.099074 5:13861.269 6:4517.2153 7:1846.736 #
4.0848474115334622e-008 1:2 2:2 3:177 4:1298 5:24373.83 6:47994.355 7:41733.781 #
-4.0848474115334622e-008 1:7 2:7 3:14 4:301.05832 5:24373.83 6:47994.355 7:41733.781 #
4.0848474115334622e-008 1:0 2:6 3:106.19049 4:254 5:11137.224 6:7047.7842 7:5691.6919 #
-4.0848474115334622e-008 1:6 2:2 3:71.478897 4:21.953424 5:10027.052 6:7906.8276 7:3036.5181 #
4.0848474115334622e-008 1:5 2:5 3:112 4:173.89273 5:7763.2051 6:13627.521 7:20834.104 #
-4.0848474115334622e-008 1:7 2:3 3:59 4:14 5:6176.582 6:10507.707 7:25586.002 #
4.0848474115334622e-008 1:1 2:5 3:623 4:654 5:10418.215 6:9062.6514 7:9712.5146 #
4.0848474115334622e-008 1:5 2:6 3:263 4:132 5:5425.3276 6:6742.9082 7:4681.2368 #
-4.0848474115334622e-008 1:7 2:2 3:0 4:31.792534 5:12930.053 6:8926.6504 7:4340.8403 #
-4.0848474115334622e-008 1:7 2:2 3:71.515335 4:21.136345 5:10027.052 6:7906.8276 7:3036.5181 #
4.0848474115334622e-008 1:0 2:4 3:1194 4:354 5:47994.355 6:41733.781 7:35334.039 #
-4.0848474115334622e-008 1:0 2:1 3:59 4:254.57356 5:47994.355 6:41733.781 7:35334.039 #
4.0848474115334622e-008 1:0 2:5 3:202 4:452 5:4113.8418 6:5635.2197 7:5624.834 #
4.0848474115334622e-008 1:3 2:7 3:1194 4:283.18311 5:47994.355 6:41733.781 7:35334.039 #
-4.0848474115334622e-008 1:2 2:1 3:14 4:23 5:23309.416 6:24373.83 7:47994.355 #
4.0848474115334622e-008 1:2 2:5 3:270 4:164 5:5772.9434 6:4958.8623 7:2550.6365 #
-4.0848474115334622e-008 1:2 2:1 3:263.42892 4:23 5:35334.039 6:8979.5215 7:3886.7029 #
4.0848474115334622e-008 1:2 2:5 3:309 4:1711 5:6176.582 6:10507.707 7:25586.002 #
-4.0848474115334622e-008 1:5 2:0 3:32.749203 4:0 5:4681.2368 6:11831.428 7:16379.374 #
4.0848474115334622e-008 1:4 2:6 3:675 4:190 5:10027.052 6:7906.8276 7:3036.5181 #
-4.0848474115334622e-008 1:3 2:0 3:71.479424 4:11 5:10027.052 6:7906.8276 7:3036.5181 #
4.0848474115334622e-008 1:2 2:7 3:354 4:1402 5:23309.416 6:24373.83 7:47994.355 #
-4.0848474115334622e-008 1:7 2:5 3:309 4:170.01254 5:25586.002 6:23309.416 7:24373.83 #
4.0848474115334622e-008 1:1 2:6 3:878 4:277 5:9882.8076 6:7350.7192 7:4213.9063 #
-4.0848474115334622e-008 1:7 2:1 3:31.165731 4:0 5:4681.2368 6:11831.428 7:16379.374 #
4.0848474115334622e-008 1:3 2:5 3:86.460129 4:50.111481 5:8867.6455 6:8484.083 7:4205.0996 #
-4.0848474115334622e-008 1:6 2:1 3:39.54261 4:0 5:5397.7905 6:10418.215 7:9062.6514 #
4.0848474115334622e-008 1:0 2:5 3:49.345959 4:416 5:3515.3901 6:6863.5869 7:7825.0635 #
-4.0848474115334622e-008 1:4 2:2 3:38.877159 4:0 5:5397.7905 6:10418.215 7:9062.6514 #
-4.0848474115334622e-008 1:7 2:3 3:60 4:0 5:6236.7656 6:9675.248 7:7359.373 #
4.0848474115334622e-008 1:2 2:5 3:1370 4:527 5:20834.104 6:12557.965 7:5611.7383 #
4.0848474115334622e-008 1:2 2:5 3:499 4:56.083103 5:8087.438 6:9279.7236 7:4745.2827 #
4.0848474115334622e-008 1:1 2:5 3:294 4:344 5:6236.7656 6:9675.248 7:7359.373 #
-4.0848474115334622e-008 1:7 2:4 3:110.97998 4:11 5:16194.922 6:13861.269 7:4517.2153 #
4.0848474115334622e-008 1:4 2:5 3:209 4:252 5:7160.936 6:13566.798 7:15172.572 #
-4.0848474115334622e-008 1:4 2:0 3:49.052883 4:0 5:6863.5869 6:7825.0635 7:9534.2051 #
-4.0848474115334622e-008 1:6 2:0 3:31.165491 4:0 5:4681.2368 6:11831.428 7:16379.374 #
4.0848474115334622e-008 1:1 2:6 3:443 4:1027 5:4354.2021 6:9992.2959 7:8223.0615 #
-4.0848474115334622e-008 1:7 2:1 3:72.946762 4:0 5:9992.2959 6:8223.0615 7:3430.1667 #
4.0848474115334622e-008 1:0 2:5 3:229 4:51.276398 5:6374.5708 6:7100.8442 7:3899.8806 #
-4.0848474115334622e-008 1:1 2:0 3:4 4:52.198383 5:6236.7656 6:9675.248 7:7359.373 #
4.0848474115334622e-008 1:3 2:6 3:64.137718 4:500 5:4343.3638 6:10027.052 7:7906.8276 #
-4.0848474115334622e-008 1:7 2:5 3:0 4:9 5:4354.2021 6:9992.2959 7:8223.0615 #
4.0848474115334622e-008 1:2 2:6 3:428 4:687 5:5859.8882 6:4718.0464 7:7763.2051 #
-4.0848474115334622e-008 1:4 2:2 3:0 4:0 5:46.656425 6:3767.2915 7:111.0256 #
4.0848474115334622e-008 1:3 2:7 3:193.73137 4:1194 5:23309.416 6:24373.83 7:47994.355 #
-4.0848474115334622e-008 1:0 2:1 3:188.01041 4:171.25896 5:25586.002 6:23309.416 7:24373.83 #
4.0848474115334622e-008 1:3 2:5 3:399 4:0 5:3886.7029 6:6196.0386 7:0 #
-4.0848474115334622e-008 1:2 2:1 3:44.426811 4:0 5:6176.582 6:10507.707 7:25586.002 #
4.0848474115334622e-008 1:0 2:6 3:63.932743 4:54.379822 5:5355.7749 6:6945.1152 7:3895.7 #
-4.0848474115334622e-008 1:2 2:0 3:0 4:0 5:46.656425 6:3767.2915 7:111.0256 #
4.0848474115334622e-008 1:2 2:5 3:113.73556 4:1105 5:11831.428 6:16379.374 7:16194.922 #
-4.0848474115334622e-008 1:6 2:0 3:0 4:0 5:6176.582 6:10507.707 7:25586.002 #
4.0848474115334622e-008 1:1 2:6 3:29.574526 4:56 5:1357.9989 6:4329.9814 7:4866.5845 #
-4.0848474115334622e-008 1:6 2:0 3:71.231453 4:0 5:9992.2959 6:8223.0615 7:3430.1667 #
4.0848474115334622e-008 1:4 2:6 3:74.228081 4:86.062317 5:4354.2021 6:9992.2959 7:8223.0615 #
-4.0848474115334622e-008 1:2 2:0 3:31 4:0 5:5397.7905 6:10418.215 7:9062.6514 #
4.0848474115334622e-008 1:4 2:7 3:52 4:110 5:5355.7749 6:6945.1152 7:3895.7 #
-4.0848474115334622e-008 1:4 2:1 3:0 4:0 5:46.656425 6:3767.2915 7:111.0256 #
4.0848474115334622e-008 1:0 2:6 3:244 4:89.008713 5:3348.02 6:4098.8447 7:4343.3638 #
-4.0848474115334622e-008 1:6 2:1 3:0 4:53.172657 5:6236.7656 6:9675.248 7:7359.373 #
4.0848474115334622e-008 1:3 2:5 3:579 4:49.875286 5:7454.1318 6:6778.0342 7:3316.1152 #
-4.0848474115334622e-008 1:6 2:0 3:0 4:31.766766 5:12930.053 6:8926.6504 7:4340.8403 #
4.0848474115334622e-008 1:0 2:7 3:790 4:731 5:25586.002 6:23309.416 7:24373.83 #
-4.0848474115334622e-008 1:1 2:1 3:12 4:105.27917 5:8324.292 6:13664.028 7:14768.524 #
4.0848474115334622e-008 1:4 2:6 3:366 4:290 5:7326.0947 6:6085.8525 7:2398.0789 #
-4.0848474115334622e-008 1:6 2:3 3:0 4:26.921225 5:15172.572 6:11423.946 7:3781.2725 #
4.0848474115334622e-008 1:4 2:6 3:98.374062 4:249 5:8867.6455 6:8484.083 7:4205.0996 #
-4.0848474115334622e-008 1:4 2:2 3:0 4:31.25679 5:12930.053 6:8926.6504 7:4340.8403 #
4.0848474115334622e-008 1:3 2:5 3:84.595627 4:584 5:5856.1021 6:7454.1318 7:6778.0342 #
-4.0848474115334622e-008 1:4 2:0 3:0 4:0 5:4681.2368 6:11831.428 7:16379.374 #
4.0848474115334622e-008 1:3 2:5 3:71.081116 4:1434 5:6742.9082 6:4681.2368 7:11831.428 #
-4.0848474115334622e-008 1:3 2:2 3:113 4:51 5:8481.25 6:7224.1665 7:6294.9863 #
4.0848474115334622e-008 1:5 2:6 3:470 4:547 5:6622.5566 6:8087.438 7:9279.7236 #
-4.0848474115334622e-008 1:7 2:0 3:0 4:52.19241 5:6236.7656 6:9675.248 7:7359.373 #
4.0848474115334622e-008 1:2 2:5 3:89.925209 4:244 5:7825.0635 6:9534.2051 7:3498.4363 #
-4.0848474115334622e-008 1:5 2:3 3:6 4:0 5:12930.053 6:8926.6504 7:4340.8403 #
4.0848474115334622e-008 1:1 2:7 3:109 4:923 5:1070.0177 6:6707.2271 7:6374.5708 #
-4.0848474115334622e-008 1:5 2:0 3:0 4:0 5:46.656425 6:3767.2915 7:111.0256 #
4.0848474115334622e-008 1:4 2:7 3:333.56183 4:118 5:41733.781 6:35334.039 7:8979.5215 #
-4.0848474115334622e-008 1:5 2:4 3:298 4:27.071363 5:15172.572 6:11423.946 7:3781.2725 #
4.0848474115334622e-008 1:0 2:4 3:24.023861 4:570 5:633.71625 6:5354.627 7:6266.2939 #
-4.0848474115334622e-008 1:4 2:2 3:60.113274 4:0 5:8324.292 6:13664.028 7:14768.524 #
4.0848474115334622e-008 1:3 2:5 3:414 4:61.644127 5:4938.4043 6:4394.5479 7:5425.3276 #
-4.0848474115334622e-008 1:1 2:1 3:14 4:6 5:15172.572 6:11423.946 7:3781.2725 #
4.0848474115334622e-008 1:3 2:5 3:399 4:517 5:6863.5869 6:7825.0635 7:9534.2051 #
-4.0848474115334622e-008 1:7 2:2 3:0 4:0 5:4681.2368 6:11831.428 7:16379.374 #
4.0848474115334622e-008 1:0 2:4 3:570 4:188 5:5354.627 6:6266.2939 7:4807.2144 #
-4.0848474115334622e-008 1:1 2:1 3:0 4:3 5:12930.053 6:8926.6504 7:4340.8403 #
4.0848474115334622e-008 1:2 2:7 3:340 4:244 5:8324.292 6:13664.028 7:14768.524 #
-4.0848474115334622e-008 1:7 2:5 3:6 4:106.60337 5:7160.936 6:13566.798 7:15172.572 #
4.0848474115334622e-008 1:2 2:6 3:64.098747 4:1262 5:5194.6855 6:5438.9741 7:8243.7627 #
-4.0848474115334622e-008 1:4 2:1 3:52.738609 4:49.953152 5:7351.4438 6:8481.25 7:7224.1665 #
4.0848474115334622e-008 1:3 2:5 3:119.7842 4:427 5:12930.053 6:8926.6504 7:4340.8403 #
-4.0848474115334622e-008 1:1 2:0 3:0 4:0 5:12930.053 6:8926.6504 7:4340.8403 #
4.0848474115334622e-008 1:4 2:6 3:220 4:675 5:4098.8447 6:4343.3638 7:10027.052 #
-4.0848474115334622e-008 1:2 2:1 3:6 4:45.869255 5:1070.0177 6:6707.2271 7:6374.5708 #
4.0848474115334622e-008 1:1 2:5 3:1102 4:268 5:20834.104 6:12557.965 7:5611.7383 #
-4.0848474115334622e-008 1:2 2:0 3:9 4:0 5:15172.572 6:11423.946 7:3781.2725 #
4.0848474115334622e-008 1:3 2:6 3:78.089386 4:61.908928 5:6095.8589 6:5941.9795 7:5397.7905 #
-4.0848474115334622e-008 1:7 2:2 3:76.381554 4:0 5:10418.215 6:9062.6514 7:9712.5146 #
4.0848474115334622e-008 1:3 2:5 3:43.876579 4:379 5:3408.1821 6:7864.4189 7:7326.0947 #
4.0848474115334622e-008 1:4 2:7 3:531 4:200 5:25586.002 6:23309.416 7:24373.83 #
-4.0848474115334622e-008 1:0 2:1 3:9 4:12 5:8324.292 6:13664.028 7:14768.524 #
4.0848474115334622e-008 1:2 2:6 3:410 4:98.65229 5:5355.7749 6:6945.1152 7:3895.7 #
-4.0848474115334622e-008 1:2 2:0 3:0 4:9 5:8324.292 6:13664.028 7:14768.524 #
4.0848474115334622e-008 1:0 2:6 3:713 4:44.875023 5:7350.7192 6:4213.9063 7:3343.2544 #
-4.0848474115334622e-008 1:6 2:0 3:74.725983 4:0 5:10418.215 6:9062.6514 7:9712.5146 #
4.0848474115334622e-008 1:5 2:6 3:56.171257 4:160 5:4343.3638 6:10027.052 7:7906.8276 #
-4.0848474115334622e-008 1:4 2:0 3:9 4:0 5:8243.7627 6:9882.8076 7:7350.7192 #
4.0848474115334622e-008 1:0 2:6 3:273 4:1201 5:4049.3328 6:8820.1963 7:8867.6455 #
-4.0848474115334622e-008 1:7 2:3 3:0 4:0 5:8243.7627 6:9882.8076 7:7350.7192 #
4.0848474115334622e-008 1:1 2:7 3:311 4:153 5:8867.6455 6:8484.083 7:4205.0996 #
-4.0848474115334622e-008 1:5 2:1 3:0 4:0 5:8243.7627 6:9882.8076 7:7350.7192 #
4.0848474115334622e-008 1:1 2:2 3:136.65932 4:23 5:16379.374 6:16194.922 7:13861.269 #
-4.0848474115334622e-008 1:1 2:1 3:0 4:12 5:10418.215 6:9062.6514 7:9712.5146 #
4.0848474115334622e-008 1:3 2:5 3:60.427277 4:103.42878 5:5624.834 6:6236.7656 7:9675.248 #
-4.0848474115334622e-008 1:4 2:2 3:0 4:0 5:10418.215 6:9062.6514 7:9712.5146 #
4.0848474115334622e-008 1:3 2:5 3:417 4:75.247406 5:4932.7153 6:7413.7197 7:7351.4438 #
-4.0848474115334622e-008 1:6 2:0 3:0 4:0 5:8243.7627 6:9882.8076 7:7350.7192 #
4.0848474115334622e-008 1:4 2:6 3:142.07462 4:51.620975 5:12930.053 6:8926.6504 7:4340.8403 #
-4.0848474115334622e-008 1:2 2:0 3:62.640572 4:3 5:8820.1963 6:8867.6455 7:8484.083 #
4.0848474115334622e-008 1:3 2:6 3:324 4:212 5:4857.5962 6:5772.9434 7:4958.8623 #
-4.0848474115334622e-008 1:3 2:0 3:61.146687 4:44.002861 5:8481.25 6:7224.1665 7:6294.9863 #
4.0848474115334622e-008 1:1 2:6 3:213 4:865 5:2694.259 6:4049.3328 7:8820.1963 #
-4.0848474115334622e-008 1:6 2:4 3:69 4:69 5:4719.1094 6:5859.8882 7:4718.0464 #
4.0848474115334622e-008 1:4 2:7 3:200 4:333.56183 5:24373.83 6:47994.355 7:41733.781 #
-4.0848474115334622e-008 1:5 2:0 3:68 4:0 5:7160.936 6:13566.798 7:15172.572 #
4.0848474115334622e-008 1:0 2:3 3:23.370878 4:642 5:633.71625 6:5354.627 7:6266.2939 #
-4.0848474115334622e-008 1:7 2:7 3:51.591064 4:0 5:7160.936 6:13566.798 7:15172.572 #
4.0848474115334622e-008 1:0 2:6 3:396 4:859 5:3829.4893 6:4469.6655 7:5173.2158 #
-4.0848474115334622e-008 1:1 2:0 3:31.308735 4:115.92207 5:4681.2368 6:11831.428 7:16379.374 #
4.0848474115334622e-008 1:1 2:5 3:285 4:16 5:5772.9434 6:4958.8623 7:2550.6365 #
-4.0848474115334622e-008 1:2 2:0 3:0 4:0 5:10418.215 6:9062.6514 7:9712.5146 #
4.0848474115334622e-008 1:5 2:6 3:579 4:163 5:8087.438 6:9279.7236 7:4745.2827 #
-4.0848474115334622e-008 1:7 2:3 3:5 4:62.119061 5:8820.1963 6:8867.6455 7:8484.083 #
4.0848474115334622e-008 1:1 2:5 3:62.61515 4:75.134972 5:5425.3276 6:6742.9082 7:4681.2368 #
-4.0848474115334622e-008 1:5 2:2 3:12 4:4 5:6236.7656 6:9675.248 7:7359.373 #
4.0848474115334622e-008 1:0 2:5 3:61.095867 4:864 5:4718.0464 6:7763.2051 7:13627.521 #
-4.0848474115334622e-008 1:1 2:1 3:0 4:0 5:5397.7905 6:10418.215 7:9062.6514 #
4.0848474115334622e-008 1:1 2:6 3:414 4:443 5:7864.4189 6:7326.0947 7:6085.8525 #
-4.0848474115334622e-008 1:5 2:0 3:0 4:62.117306 5:8820.1963 6:8867.6455 7:8484.083 #
4.0848474115334622e-008 1:1 2:1 3:27.42058 4:61.541706 5:1464.8287 6:7084.2524 7:6154.4097 #
-4.0848474115334622e-008 1:4 2:2 3:0 4:0 5:4354.2021 6:9992.2959 7:8223.0615 #
4.0848474115334622e-008 1:3 2:6 3:497 4:135 5:7825.0635 6:9534.2051 7:3498.4363 #
-4.0848474115334622e-008 1:4 2:2 3:0 4:0 5:6236.7656 6:9675.248 7:7359.373 #
4.0848474115334622e-008 1:5 2:6 3:458 4:767 5:24373.83 6:47994.355 7:41733.781 #
-4.0848474115334622e-008 1:3 2:2 3:14 4:41 5:4681.2368 6:11831.428 7:16379.374 #
4.0848474115334622e-008 1:0 2:3 3:0 4:247 5:49.282223 6:6475.5566 7:3788.7727 #
-4.0848474115334622e-008 1:3 2:1 3:32.117432 4:7 5:4681.2368 6:11831.428 7:16379.374 #
4.0848474115334622e-008 1:2 2:5 3:82.094162 4:313 5:8481.25 6:7224.1665 7:6294.9863 #
-4.0848474115334622e-008 1:5 2:1 3:0 4:0 5:10418.215 6:9062.6514 7:9712.5146 #
4.0848474115334622e-008 1:4 2:6 3:380 4:493 5:7351.4438 6:8481.25 7:7224.1665 #
-4.0848474115334622e-008 1:6 2:1 3:0 4:0 5:10418.215 6:9062.6514 7:9712.5146 #
4.0848474115334622e-008 1:3 2:6 3:270 4:470 5:3890.689 6:5194.6855 7:5438.9741 #
-4.0848474115334622e-008 1:5 2:1 3:0 4:0 5:5397.7905 6:10418.215 7:9062.6514 #
4.0848474115334622e-008 1:0 2:7 3:90 4:138.644 5:3160.4509 6:8324.292 7:13664.028 #
-4.0848474115334622e-008 1:7 2:0 3:0 4:0 5:5397.7905 6:10418.215 7:9062.6514 #
4.0848474115334622e-008 1:6 2:3 3:31 4:0 5:4214.2817 6:7000.1299 7:6095.8589 #
-4.0848474115334622e-008 1:7 2:3 3:0 4:0 5:4354.2021 6:9992.2959 7:8223.0615 #
4.0848474115334622e-008 1:5 2:6 3:151 4:180 5:3408.1821 6:7864.4189 7:7326.0947 #
-4.0848474115334622e-008 1:5 2:3 3:0 4:61.523067 5:8820.1963 6:8867.6455 7:8484.083 #
-4.0848474115334622e-008 1:6 2:1 3:0 4:61.415901 5:8820.1963 6:8867.6455 7:8484.083 #
-4.0848474115334622e-008 1:7 2:1 3:0 4:61.414906 5:8820.1963 6:8867.6455 7:8484.083 #
4.0848474115334622e-008 1:1 2:5 3:380 4:53.774464 5:16194.922 6:13861.269 7:4517.2153 #
4.0848474115334622e-008 1:2 2:5 3:618 4:212 5:12557.965 6:5611.7383 7:3021.7092 #
4.0848474115334622e-008 1:0 2:6 3:286.82697 4:132 5:35334.039 6:8979.5215 7:3886.7029 #
-4.0848474115334622e-008 1:7 2:0 3:0 4:0 5:10418.215 6:9062.6514 7:9712.5146 #
4.0848474115334622e-008 1:5 2:5 3:65.642998 4:219.56354 5:6176.582 6:10507.707 7:25586.002 #
-4.0848474115334622e-008 1:1 2:1 3:5 4:14 5:8820.1963 6:8867.6455 7:8484.083 #
4.0848474115334622e-008 1:1 2:5 3:276 4:84.139236 5:4049.3328 6:8820.1963 7:8867.6455 #
-4.0848474115334622e-008 1:4 2:2 3:8 4:0 5:8820.1963 6:8867.6455 7:8484.083 #
4.0848474115334622e-008 1:0 2:5 3:401 4:153 5:7326.0947 6:6085.8525 7:2398.0789 #
-4.0848474115334622e-008 1:1 2:0 3:5 4:0 5:8820.1963 6:8867.6455 7:8484.083 #
4.0848474115334622e-008 1:4 2:6 3:358 4:380 5:4932.7153 6:7413.7197 7:7351.4438 #
-4.0848474115334622e-008 1:5 2:1 3:3 4:0 5:8820.1963 6:8867.6455 7:8484.083 #
4.0848474115334622e-008 1:1 2:3 3:44.622089 4:94 5:2371.6023 6:4132.1538 7:2421.272 #
-4.0848474115334622e-008 1:7 2:0 3:0 4:0 5:8820.1963 6:8867.6455 7:8484.083 #
4.0848474115334622e-008 1:4 2:5 3:131.47945 4:730 5:13627.521 6:20834.104 7:12557.965 #
-4.0848474115334622e-008 1:6 2:2 3:54.132957 4:7 5:7351.4438 6:8481.25 7:7224.1665 #
4.0848474115334622e-008 1:3 2:7 3:45 4:68 5:2941.458 6:4024.2307 7:3029.304 #
-4.0848474115334622e-008 1:5 2:3 3:11 4:51.198391 5:7351.4438 6:8481.25 7:7224.1665 #
4.0848474115334622e-008 1:4 2:7 3:95.823479 4:567 5:10507.707 6:25586.002 7:23309.416 #
-4.0848474115334622e-008 1:7 2:2 3:0 4:49.951401 5:7351.4438 6:8481.25 7:7224.1665 #
4.0848474115334622e-008 1:3 2:6 3:140.52859 4:94 5:8926.6504 6:4340.8403 7:1386.9575 #
-4.0848474115334622e-008 1:7 2:0 3:0 4:49.948933 5:7351.4438 6:8481.25 7:7224.1665 #
4.0848474115334622e-008 1:2 2:5 3:247 4:66.341469 5:4469.6655 6:5173.2158 7:5904.7783 #
-4.0848474115334622e-008 1:5 2:1 3:30 4:0 5:7351.4438 6:8481.25 7:7224.1665 #
4.0848474115334622e-008 1:4 2:5 3:639 4:200 5:9882.8076 6:7350.7192 7:4213.9063 #
-4.0848474115334622e-008 1:4 2:2 3:0 4:0 5:7351.4438 6:8481.25 7:7224.1665 #
4.0848474115334622e-008 1:3 2:5 3:574 4:50.641148 5:7825.0635 6:9534.2051 7:3498.4363 #
-4.0848474115334622e-008 1:6 2:0 3:0 4:0 5:7351.4438 6:8481.25 7:7224.1665 #
4.0848474115334622e-008 1:3 2:5 3:45.127575 4:51.642601 5:2941.458 6:4024.2307 7:3029.304 #
-4.0848474115334622e-008 1:7 2:5 3:122 4:31 5:7000.1299 6:6095.8589 7:5941.9795 #
-4.0848474115334622e-008 1:7 2:3 3:51.113457 4:71 5:7000.1299 6:6095.8589 7:5941.9795 #
-4.0848474115334622e-008 1:5 2:1 3:0 4:48.559013 5:5856.1021 6:7454.1318 7:6778.0342 #
4.0848474115334622e-008 1:0 2:5 3:89.106216 4:101 5:9675.248 6:7359.373 7:3231.9216 #
4.0848474115334622e-008 1:0 2:7 3:484 4:507 5:4932.7153 6:7413.7197 7:7351.4438 #
4.0848474115334622e-008 1:0 2:7 3:507 4:383 5:7413.7197 6:7351.4438 7:8481.25 #
-4.0848474115334622e-008 1:4 2:0 3:54.081451 4:24 5:7413.7197 6:7351.4438 7:8481.25 #
4.0848474115334622e-008 1:1 2:6 3:73.052856 4:200 5:7454.1318 6:6778.0342 7:3316.1152 #
-4.0848474115334622e-008 1:2 2:1 3:0 4:48.190575 5:5856.1021 6:7454.1318 7:6778.0342 #
4.0848474115334622e-008 1:3 2:5 3:354 4:1311 5:6436.312 6:6176.582 7:10507.707 #
-4.0848474115334622e-008 1:7 2:0 3:0 4:47.873264 5:5856.1021 6:7454.1318 7:6778.0342 #
4.0848474115334622e-008 1:0 2:6 3:750 4:36.105442 5:5772.9434 6:4958.8623 7:2550.6365 #
-4.0848474115334622e-008 1:4 2:2 3:41.841949 4:0 5:5856.1021 6:7454.1318 7:6778.0342 #
4.0848474115334622e-008 1:0 2:6 3:484 4:106.36449 5:6580.8569 6:6622.5566 7:8087.438 #
-4.0848474115334622e-008 1:3 2:0 3:7 4:61.146687 5:7413.7197 6:7351.4438 7:8481.25 #
4.0848474115334622e-008 1:4 2:6 3:453 4:54.371262 5:5425.3276 6:6742.9082 7:4681.2368 #
-4.0848474115334622e-008 1:2 2:0 3:15 4:0 5:5856.1021 6:7454.1318 7:6778.0342 #
-4.0848474115334622e-008 1:5 2:0 3:54.080433 4:12 5:7413.7197 6:7351.4438 7:8481.25 #
-4.0848474115334622e-008 1:7 2:1 3:0 4:61.14394 5:7413.7197 6:7351.4438 7:8481.25 #
4.0848474115334622e-008 1:5 2:6 3:117.80679 4:113.77538 5:13664.028 6:14768.524 7:12930.053 #
4.0848474115334622e-008 1:2 2:6 3:196 4:60.088165 5:2141.7012 6:4857.5962 7:5772.9434 #
4.0848474115334622e-008 1:1 2:7 3:451 4:485 5:6154.4097 6:3455.1846 7:4330.2002 #
-4.0848474115334622e-008 1:4 2:2 3:52.916489 4:0 5:7413.7197 6:7351.4438 7:8481.25 #
4.0848474115334622e-008 1:0 2:3 3:642 4:35.459026 5:6266.2939 6:4807.2144 7:2244.7947 #
4.0848474115334622e-008 1:5 2:4 3:188.03056 4:531 5:24373.83 6:47994.355 7:41733.781 #
-4.0848474115334622e-008 1:6 2:2 3:31.306229 4:0 5:4681.2368 6:11831.428 7:16379.374 #
4.0848474115334622e-008 1:2 2:4 3:130 4:38.320717 5:2269.501 6:3090.0891 7:2773.2153 #
-4.0848474115334622e-008 1:5 2:0 3:11 4:65.107368 5:6622.5566 6:8087.438 7:9279.7236 #
-4.0848474115334622e-008 1:7 2:3 3:4 4:66.112144 5:6622.5566 6:8087.438 7:9279.7236 #
4.0848474115334622e-008 1:3 2:5 3:254 4:77.602333 5:4278.5552 6:6047.2798 7:4354.2021 #
-4.0848474115334622e-008 1:7 2:1 3:0 4:66.109619 5:6622.5566 6:8087.438 7:9279.7236 #
4.0848474115334622e-008 1:1 2:6 3:315 4:650 5:2884.3042 6:4751.8096 7:6025.7842 #
-4.0848474115334622e-008 1:1 2:0 3:0 4:65.249619 5:6622.5566 6:8087.438 7:9279.7236 #
4.0848474115334622e-008 1:1 2:5 3:654 4:1084 5:6025.7842 6:7160.936 7:13566.798 #
-4.0848474115334622e-008 1:7 2:3 3:48.666473 4:67.986481 5:6863.5869 6:7825.0635 7:9534.2051 #
4.0848474115334622e-008 1:3 2:6 3:76.341347 4:539 5:6863.5869 6:7825.0635 7:9534.2051 #
-4.0848474115334622e-008 1:7 2:1 3:48.452843 4:67.984009 5:6863.5869 6:7825.0635 7:9534.2051 #
4.0848474115334622e-008 1:4 2:5 3:71.367577 4:697 5:6945.1152 6:3895.7 7:11137.224 #
4.0848474115334622e-008 1:1 2:5 3:334 4:275 5:4354.2021 6:9992.2959 7:8223.0615 #
-4.0848474115334622e-008 1:7 2:2 3:48.642506 4:0 5:6622.5566 6:8087.438 7:9279.7236 #
4.0848474115334622e-008 1:3 2:5 3:110.92016 4:440 5:7047.7842 6:5691.6919 7:4594.9434 #
-4.0848474115334622e-008 1:6 2:1 3:48.642262 4:0 5:6622.5566 6:8087.438 7:9279.7236 #
4.0848474115334622e-008 1:4 2:5 3:54.721783 4:131.47945 5:4718.0464 6:7763.2051 7:13627.521 #
-4.0848474115334622e-008 1:4 2:2 3:17 4:67.988228 5:6863.5869 6:7825.0635 7:9534.2051 #
4.0848474115334622e-008 1:2 2:6 3:870 4:35.751743 5:7326.0947 6:6085.8525 7:2398.0789 #
-4.0848474115334622e-008 1:7 2:0 3:52.911034 4:0 5:7413.7197 6:7351.4438 7:8481.25 #
4.0848474115334622e-008 1:1 2:6 3:286 4:1325 5:5397.7905 6:10418.215 7:9062.6514 #
-4.0848474115334622e-008 1:5 2:2 3:6 4:69.335327 5:6863.5869 6:7825.0635 7:9534.2051 #
4.0848474115334622e-008 1:4 2:6 3:257 4:85.536865 5:5469.4375 6:5856.1021 7:7454.1318 #
-4.0848474115334622e-008 1:0 2:1 3:13 4:7 5:6622.5566 6:8087.438 7:9279.7236 #
4.0848474115334622e-008 1:2 2:5 3:466 4:606 5:6622.5566 6:8087.438 7:9279.7236 #
-4.0848474115334622e-008 1:7 2:3 3:0 4:7 5:7413.7197 6:7351.4438 7:8481.25 #
4.0848474115334622e-008 1:1 2:7 3:670 4:444 5:7160.936 6:13566.798 7:15172.572 #
-4.0848474115334622e-008 1:7 2:0 3:0 4:67.982773 5:6863.5869 6:7825.0635 7:9534.2051 #
4.0848474115334622e-008 1:2 2:4 3:73.586884 4:34.606949 5:6266.2939 6:4807.2144 7:2244.7947 #
-4.0848474115334622e-008 1:6 2:1 3:0 4:7 5:7413.7197 6:7351.4438 7:8481.25 #
4.0848474115334622e-008 1:1 2:5 3:348 4:90.34594 5:6622.5566 6:8087.438 7:9279.7236 #
-4.0848474115334622e-008 1:6 2:1 3:48.453838 4:0 5:6863.5869 6:7825.0635 7:9534.2051 #
4.0848474115334622e-008 1:1 2:5 3:73.463135 4:362 5:6863.5869 6:7825.0635 7:9534.2051 #
-4.0848474115334622e-008 1:2 2:0 3:0 4:0 5:6622.5566 6:8087.438 7:9279.7236 #
4.0848474115334622e-008 1:3 2:6 3:596 4:291 5:10027.052 6:7906.8276 7:3036.5181 #
-4.0848474115334622e-008 1:7 2:2 3:0 4:0 5:7413.7197 6:7351.4438 7:8481.25 #
4.0848474115334622e-008 1:4 2:6 3:539 4:419 5:8481.25 6:7224.1665 7:6294.9863 #
-4.0848474115334622e-008 1:6 2:0 3:0 4:0 5:7413.7197 6:7351.4438 7:8481.25 #
4.0848474115334622e-008 1:0 2:6 3:770 4:168 5:7224.1665 6:6294.9863 7:2278.4575 #
-4.0848474115334622e-008 1:7 2:2 3:48.253124 4:52.314037 5:6707.2271 6:6374.5708 7:7100.8442 #
4.0848474115334622e-008 1:5 2:6 3:122 4:119 5:9062.6514 6:9712.5146 7:3695.0015 #
-4.0848474115334622e-008 1:3 2:0 3:48.254635 4:51.094566 5:6707.2271 6:6374.5708 7:7100.8442 #
4.0848474115334622e-008 1:2 2:5 3:153.19041 4:77 5:13861.269 6:4517.2153 7:1846.736 #
-4.0848474115334622e-008 1:7 2:2 3:48.454079 4:0 5:6863.5869 6:7825.0635 7:9534.2051 #
4.0848474115334622e-008 1:5 2:5 3:219.56354 4:215.63525 5:25586.002 6:23309.416 7:24373.83 #
-4.0848474115334622e-008 1:1 2:1 3:49.370415 4:7 5:6863.5869 6:7825.0635 7:9534.2051 #
4.0848474115334622e-008 1:0 2:5 3:990 4:63.153282 5:20834.104 6:12557.965 7:5611.7383 #
-4.0848474115334622e-008 1:1 2:0 3:49.358006 4:7 5:6863.5869 6:7825.0635 7:9534.2051 #
4.0848474115334622e-008 1:5 2:4 3:531 4:191 5:47994.355 6:41733.781 7:35334.039 #
-4.0848474115334622e-008 1:1 2:0 3:295.70419 4:0 5:41733.781 6:35334.039 7:8979.5215 #
4.0848474115334622e-008 1:0 2:7 3:39.524841 4:507 5:3145.4246 6:4932.7153 7:7413.7197 #
-4.0848474115334622e-008 1:0 2:0 3:250 4:64.890991 5:41733.781 6:35334.039 7:8979.5215 #
4.0848474115334622e-008 1:1 2:7 3:500 4:44.766949 5:3455.1846 6:4330.2002 7:3689.0508 #
-4.0848474115334622e-008 1:6 2:1 3:0 4:0 5:35334.039 6:8979.5215 7:3886.7029 #
4.0848474115334622e-008 1:1 2:5 3:53.239223 4:66.510506 5:4113.8418 6:5635.2197 7:5624.834 #
-4.0848474115334622e-008 1:2 2:2 3:7 4:30 5:16194.922 6:13861.269 7:4517.2153 #
4.0848474115334622e-008 1:1 2:5 3:62.911884 4:276 5:6266.2939 6:4807.2144 7:2244.7947 #
-4.0848474115334622e-008 1:7 2:1 3:0 4:0 5:46.656425 6:3767.2915 7:111.0256 #
4.0848474115334622e-008 1:5 2:6 3:309 4:554 5:23309.416 6:24373.83 7:47994.355 #
-4.0848474115334622e-008 1:0 2:1 3:171.25896 4:45 5:24373.83 6:47994.355 7:41733.781 #
4.0848474115334622e-008 1:3 2:5 3:329 4:40.915535 5:4604.6602 6:4146.5547 7:3011.3391 #
-4.0848474115334622e-008 1:7 2:3 3:0 4:0 5:1164.1793 6:3561.5342 7:51.633495 #
4.0848474115334622e-008 1:1 2:4 3:259 4:316.13156 5:24373.83 6:47994.355 7:41733.781 #
-4.0848474115334622e-008 1:7 2:3 3:14 4:360.37805 5:23309.416 6:24373.83 7:47994.355 #
4.0848474115334622e-008 1:4 2:6 3:55.641258 4:146 5:5173.2158 6:5904.7783 7:3178.3979 #
-4.0848474115334622e-008 1:7 2:2 3:0 4:0 5:8087.438 6:9279.7236 7:4745.2827 #
4.0848474115334622e-008 1:0 2:6 3:153 4:499 5:4890.5239 6:6580.8569 7:6622.5566 #
-4.0848474115334622e-008 1:6 2:0 3:0 4:0 5:8087.438 6:9279.7236 7:4745.2827 #
4.0848474115334622e-008 1:1 2:5 3:344 4:445 5:8243.7627 6:9882.8076 7:7350.7192 #
-4.0848474115334622e-008 1:0 2:1 3:14 4:22.051146 5:9992.2959 6:8223.0615 7:3430.1667 #
4.0848474115334622e-008 1:3 2:5 3:379 4:281 5:7326.0947 6:6085.8525 7:2398.0789 #
-4.0848474115334622e-008 1:2 2:1 3:5 4:28.174112 5:8867.6455 6:8484.083 7:4205.0996 #
4.0848474115334622e-008 1:2 2:5 3:41.471382 4:1042 5:3160.4509 6:8324.292 7:13664.028 #
-4.0848474115334622e-008 1:3 2:1 3:5 4:63.042599 5:4049.3328 6:8820.1963 7:8867.6455 #
4.0848474115334622e-008 1:0 2:5 3:1035 4:132 5:12930.053 6:8926.6504 7:4340.8403 #
-4.0848474115334622e-008 1:7 2:0 3:0 4:27.712017 5:8867.6455 6:8484.083 7:4205.0996 #
4.0848474115334622e-008 1:2 2:6 3:53.851345 4:68.729065 5:5070.5396 6:6436.312 7:6176.582 #
-4.0848474115334622e-008 1:5 2:0 3:23.070341 4:50.094795 5:3408.1821 6:7864.4189 7:7326.0947 #
4.0848474115334622e-008 1:1 2:7 3:425 4:779 5:8324.292 6:13664.028 7:14768.524 #
-4.0848474115334622e-008 1:3 2:2 3:96.684074 4:22 5:13627.521 6:20834.104 7:12557.965 #
4.0848474115334622e-008 1:4 2:6 3:42.348564 4:209 5:3231.9216 6:3251.3574 7:2352.9448 #
-4.0848474115334622e-008 1:4 2:1 3:0 4:0 5:1164.1793 6:3561.5342 7:51.633495 #
4.0848474115334622e-008 1:4 2:5 3:131.73419 4:190 5:16194.922 6:13861.269 7:4517.2153 #
-4.0848474115334622e-008 1:7 2:0 3:0 4:21.731844 5:9992.2959 6:8223.0615 7:3430.1667 #
4.0848474115334622e-008 1:1 2:5 3:77 4:153 5:2955.3279 6:4938.4043 7:4394.5479 #
-4.0848474115334622e-008 1:7 2:2 3:0 4:62.86702 5:4049.3328 6:8820.1963 7:8867.6455 #
4.0848474115334622e-008 1:6 2:7 3:52.01239 4:99 5:4719.1094 6:5859.8882 7:4718.0464 #
-4.0848474115334622e-008 1:7 2:2 3:70.347412 4:23.232498 5:9675.248 6:7359.373 7:3231.9216 #
4.0848474115334622e-008 1:1 2:5 3:49.401962 4:144.2762 5:3160.4509 6:8324.292 7:13664.028 #
-4.0848474115334622e-008 1:6 2:6 3:0 4:47.23777 5:1070.0177 6:6707.2271 7:6374.5708 #
4.0848474115334622e-008 1:0 2:7 3:132.76601 4:49.191429 5:12930.053 6:8926.6504 7:4340.8403 #
-4.0848474115334622e-008 1:4 2:0 3:14 4:0 5:8867.6455 6:8484.083 7:4205.0996 #
4.0848474115334622e-008 1:3 2:7 3:134 4:112 5:4719.1094 6:5859.8882 7:4718.0464 #
-4.0848474115334622e-008 1:5 2:0 3:27.595215 4:0 5:4049.3328 6:8820.1963 7:8867.6455 #
4.0848474115334622e-008 1:2 2:7 3:48.405941 4:51.840961 5:4443.2471 6:6299.3711 7:3991.3462 #
-4.0848474115334622e-008 1:7 2:4 3:69.035118 4:22.621651 5:9675.248 6:7359.373 7:3231.9216 #
4.0848474115334622e-008 1:0 2:6 3:88.902924 4:300 5:9712.5146 6:3695.0015 7:4837.938 #
-4.0848474115334622e-008 1:5 2:0 3:45.553936 4:29.126547 5:6374.5708 6:7100.8442 7:3899.8806 #
4.0848474115334622e-008 1:3 2:5 3:53.13422 4:153 5:4214.2817 6:7000.1299 7:6095.8589 #
-4.0848474115334622e-008 1:4 2:2 3:0 4:45.8685 5:1070.0177 6:6707.2271 7:6374.5708 #
4.0848474115334622e-008 1:5 2:6 3:212 4:62.471951 5:20834.104 6:12557.965 7:5611.7383 #
-4.0848474115334622e-008 1:7 2:3 3:0 4:0 5:16194.922 6:13861.269 7:4517.2153 #
4.0848474115334622e-008 1:3 2:6 3:172 4:78.089386 5:4214.2817 6:7000.1299 7:6095.8589 #
-4.0848474115334622e-008 1:7 2:1 3:69.521492 4:28.586098 5:9882.8076 6:7350.7192 7:4213.9063 #
4.0848474115334622e-008 1:5 2:6 3:56.429379 4:122 5:5397.7905 6:10418.215 7:9062.6514 #
-4.0848474115334622e-008 1:6 2:3 3:9 4:101.11362 5:3160.4509 6:8324.292 7:13664.028 #
4.0848474115334622e-008 1:2 2:5 3:310 4:148 5:9675.248 6:7359.373 7:3231.9216 #
-4.0848474115334622e-008 1:2 2:0 3:70.349976 4:0 5:9675.248 6:7359.373 7:3231.9216 #
4.0848474115334622e-008 1:4 2:6 3:70.841515 4:849 5:6436.312 6:6176.582 7:10507.707 #
-4.0848474115334622e-008 1:5 2:1 3:70.348183 4:0 5:9675.248 6:7359.373 7:3231.9216 #
4.0848474115334622e-008 1:5 2:6 3:75.30336 4:579 5:6580.8569 6:6622.5566 7:8087.438 #
-4.0848474115334622e-008 1:7 2:1 3:0 4:101.03578 5:3160.4509 6:8324.292 7:13664.028 #
4.0848474115334622e-008 1:0 2:6 3:67.809883 4:614 5:5856.1021 6:7454.1318 7:6778.0342 #
-4.0848474115334622e-008 1:7 2:3 3:11 4:0 5:10027.052 6:7906.8276 7:3036.5181 #
4.0848474115334622e-008 1:3 2:6 3:344 4:863 5:5624.834 6:6236.7656 7:9675.248 #
-4.0848474115334622e-008 1:7 2:2 3:0 4:97.445366 5:3160.4509 6:8324.292 7:13664.028 #
4.0848474115334622e-008 1:1 2:6 3:226 4:44.652668 5:2217.9277 6:4937.8701 7:3160.4509 #
-4.0848474115334622e-008 1:6 2:2 3:0 4:0 5:1164.1793 6:3561.5342 7:51.633495 #
4.0848474115334622e-008 1:0 2:4 3:136.05179 4:322 5:16379.374 6:16194.922 7:13861.269 #
-4.0848474115334622e-008 1:6 2:4 3:14 4:14 5:16379.374 6:16194.922 7:13861.269 #
4.0848474115334622e-008 1:2 2:5 3:61.287384 4:224 5:5425.3276 6:6742.9082 7:4681.2368 #
-4.0848474115334622e-008 1:0 2:1 3:94 4:24.355667 5:7084.2524 6:6154.4097 7:3455.1846 #
4.0848474115334622e-008 1:4 2:6 3:713 4:46.320034 5:9062.6514 6:9712.5146 7:3695.0015 #
-4.0848474115334622e-008 1:4 2:2 3:0 4:5 5:8867.6455 6:8484.083 7:4205.0996 #
4.0848474115334622e-008 1:3 2:5 3:415 4:169.55885 5:4718.0464 6:7763.2051 7:13627.521 #
-4.0848474115334622e-008 1:5 2:1 3:36.47237 4:100.04017 5:4718.0464 6:7763.2051 7:13627.521 #
4.0848474115334622e-008 1:2 2:5 3:432 4:499 5:6580.8569 6:6622.5566 7:8087.438 #
-4.0848474115334622e-008 1:4 2:2 3:38.801517 4:69.871384 5:5438.9741 6:8243.7627 7:9882.8076 #
4.0848474115334622e-008 1:2 2:6 3:291 4:53.767391 5:5128.3613 6:4046.0759 7:4945.6357 #
-4.0848474115334622e-008 1:2 2:1 3:50.099018 4:45 5:7326.0947 6:6085.8525 7:2398.0789 #
4.0848474115334622e-008 1:3 2:6 3:528 4:928 5:5194.6855 6:5438.9741 7:8243.7627 #
-4.0848474115334622e-008 1:7 2:2 3:37.637199 4:70.974518 5:5438.9741 6:8243.7627 7:9882.8076 #
4.0848474115334622e-008 1:2 2:6 3:141.8049 4:28.927515 5:8484.083 6:4205.0996 7:1634.2598 #
-4.0848474115334622e-008 1:5 2:7 3:51 4:15.565503 5:7224.1665 6:6294.9863 7:2278.4575 #
4.0848474115334622e-008 1:5 2:7 3:250 4:319.02393 5:24373.83 6:47994.355 7:41733.781 #
-4.0848474115334622e-008 1:6 2:3 3:355.01569 4:23 5:47994.355 6:41733.781 7:35334.039 #
4.0848474115334622e-008 1:0 2:6 3:186 4:42.922951 5:2217.9277 6:4937.8701 7:3160.4509 #
-4.0848474115334622e-008 1:2 2:4 3:0 4:300 5:53.463696 6:49.282223 7:6475.5566 #
4.0848474115334622e-008 1:0 2:2 3:368 4:331 5:47994.355 6:41733.781 7:35334.039 #
-4.0848474115334622e-008 1:7 2:6 3:163 4:23 5:23309.416 6:24373.83 7:47994.355 #
4.0848474115334622e-008 1:5 2:6 3:323 4:33.172771 5:3029.304 6:2670.7942 7:2119.5894 #
-4.0848474115334622e-008 1:4 2:2 3:0 4:0 5:9992.2959 6:8223.0615 7:3430.1667 #
4.0848474115334622e-008 1:1 2:6 3:31.590002 4:58.758308 5:2141.7012 6:4857.5962 7:5772.9434 #
-4.0848474115334622e-008 1:5 2:1 3:0 4:0 5:1164.1793 6:3561.5342 7:51.633495 #
4.0848474115334622e-008 1:2 2:6 3:964 4:46.389359 5:7350.7192 6:4213.9063 7:3343.2544 #
-4.0848474115334622e-008 1:5 2:1 3:0 4:3 5:8867.6455 6:8484.083 7:4205.0996 #
4.0848474115334622e-008 1:0 2:7 3:444 4:424 5:6374.5708 6:7100.8442 7:3899.8806 #
-4.0848474115334622e-008 1:1 2:0 3:0 4:0 5:8867.6455 6:8484.083 7:4205.0996 #
4.0848474115334622e-008 1:4 2:6 3:55.595581 4:501 5:4394.5479 6:5425.3276 7:6742.9082 #
-4.0848474115334622e-008 1:6 2:3 3:9.0978622 4:3 5:1464.8287 6:7084.2524 7:6154.4097 #
4.0848474115334622e-008 1:1 2:6 3:432 4:377 5:5425.3276 6:6742.9082 7:4681.2368 #
-4.0848474115334622e-008 1:7 2:3 3:54.902428 4:22.129971 5:7454.1318 6:6778.0342 7:3316.1152 #
4.0848474115334622e-008 1:3 2:5 3:406 4:702 5:4937.8701 6:3160.4509 7:8324.292 #
-4.0848474115334622e-008 1:5 2:2 3:9.0976219 4:3 5:1464.8287 6:7084.2524 7:6154.4097 #
4.0848474115334622e-008 1:0 2:5 3:607 4:62.161282 5:5635.2197 6:5624.834 7:6236.7656 #
-4.0848474115334622e-008 1:7 2:0 3:0 4:51.407547 5:3408.1821 6:7864.4189 7:7326.0947 #
4.0848474115334622e-008 1:3 2:6 3:36.088043 4:974 5:2694.259 6:4049.3328 7:8820.1963 #
-4.0848474115334622e-008 1:7 2:2 3:0 4:50.579208 5:3408.1821 6:7864.4189 7:7326.0947 #
4.0848474115334622e-008 1:4 2:3 3:1402 4:85.5439 5:41733.781 6:35334.039 7:8979.5215 #
-4.0848474115334622e-008 1:3 2:1 3:36 4:65.693047 5:41733.781 6:35334.039 7:8979.5215 #
4.0848474115334622e-008 1:2 2:6 3:31 4:216 5:1452.604 6:4350.1807 7:4443.2471 #
-4.0848474115334622e-008 1:4 2:0 3:0 4:0 5:1164.1793 6:3561.5342 7:51.633495 #
4.0848474115334622e-008 1:0 2:5 3:274 4:988 5:5397.7905 6:10418.215 7:9062.6514 #
-4.0848474115334622e-008 1:7 2:1 3:38.797199 4:69.521492 5:5438.9741 6:8243.7627 7:9882.8076 #
4.0848474115334622e-008 1:3 2:6 3:393 4:33.751274 5:7326.0947 6:6085.8525 7:2398.0789 #
-4.0848474115334622e-008 1:7 2:6 3:54.906219 4:21.680346 5:7454.1318 6:6778.0342 7:3316.1152 #
4.0848474115334622e-008 1:2 2:3 3:22.487993 4:63.742882 5:1070.0177 6:6707.2271 7:6374.5708 #
-4.0848474115334622e-008 1:2 2:1 3:0 4:50.099018 5:3408.1821 6:7864.4189 7:7326.0947 #
4.0848474115334622e-008 1:0 2:5 3:722 4:61.890743 5:11137.224 6:7047.7842 7:5691.6919 #
-4.0848474115334622e-008 1:7 2:4 3:71.41465 4:0 5:9882.8076 6:7350.7192 7:4213.9063 #
4.0848474115334622e-008 1:2 2:5 3:41.280663 4:89.925209 5:3515.3901 6:6863.5869 7:7825.0635 #
-4.0848474115334622e-008 1:7 2:1 3:27.59446 4:0 5:4049.3328 6:8820.1963 7:8867.6455 #
-4.0848474115334622e-008 1:7 2:0 3:27.593224 4:0 5:4049.3328 6:8820.1963 7:8867.6455 #
-4.0848474115334622e-008 1:2 2:0 3:0 4:50.097782 5:3408.1821 6:7864.4189 7:7326.0947 #
4.0848474115334622e-008 1:2 2:5 3:677 4:56.445412 5:7047.7842 6:5691.6919 7:4594.9434 #
4.0848474115334622e-008 1:1 2:7 3:388 4:500 5:7084.2524 6:6154.4097 7:3455.1846 #
4.0848474115334622e-008 1:3 2:5 3:103.42878 4:41.569912 5:9675.248 6:7359.373 7:3231.9216 #
-4.0848474115334622e-008 1:0 2:1 3:98.909592 4:7 5:13861.269 6:4517.2153 7:1846.736 #
4.0848474115334622e-008 1:5 2:5 3:57 4:146 5:5635.2197 6:5624.834 7:6236.7656 #
-4.0848474115334622e-008 1:7 2:2 3:49.951401 4:15.29057 5:7224.1665 6:6294.9863 7:2278.4575 #
4.0848474115334622e-008 1:0 2:7 3:65.338249 4:462 5:6707.2271 6:6374.5708 7:7100.8442 #
-4.0848474115334622e-008 1:7 2:0 3:49.948933 4:14.898101 5:7224.1665 6:6294.9863 7:2278.4575 #
4.0848474115334622e-008 1:2 2:6 3:68.585899 4:49.208179 5:6374.5708 6:7100.8442 7:3899.8806 #
-4.0848474115334622e-008 1:3 2:2 3:70 4:47.387501 5:4890.5239 6:6580.8569 7:6622.5566 #
4.0848474115334622e-008 1:4 2:6 3:45.593143 4:98.374062 5:4049.3328 6:8820.1963 7:8867.6455 #
-4.0848474115334622e-008 1:3 2:0 3:0 4:48 5:3408.1821 6:7864.4189 7:7326.0947 #
4.0848474115334622e-008 1:1 2:5 3:488 4:158 5:9882.8076 6:7350.7192 7:4213.9063 #
-4.0848474115334622e-008 1:7 2:6 3:81.574768 4:42.175934 5:11137.224 6:7047.7842 7:5691.6919 #
4.0848474115334622e-008 1:0 2:6 3:264 4:97.964813 5:5194.6855 6:5438.9741 7:8243.7627 #
-4.0848474115334622e-008 1:6 2:4 3:34.676678 4:52.76799 5:4932.7153 6:7413.7197 7:7351.4438 #
4.0848474115334622e-008 1:1 2:6 3:539 4:37.007153 5:7326.0947 6:6085.8525 7:2398.0789 #
-4.0848474115334622e-008 1:2 2:0 3:50.097782 4:17.300413 5:7326.0947 6:6085.8525 7:2398.0789 #
4.0848474115334622e-008 1:1 2:7 3:505 4:98.890678 5:13566.798 6:15172.572 7:11423.946 #
-4.0848474115334622e-008 1:3 2:1 3:4 4:110.98213 5:11831.428 6:16379.374 7:16194.922 #
4.0848474115334622e-008 1:0 2:7 3:242 4:39.65361 5:5173.2158 6:5904.7783 7:3178.3979 #
-4.0848474115334622e-008 1:7 2:2 3:0 4:0 5:1164.1793 6:3561.5342 7:51.633495 #
4.0848474115334622e-008 1:4 2:6 3:85.707649 4:849 5:8324.292 6:13664.028 7:14768.524 #
-4.0848474115334622e-008 1:0 2:1 3:14 4:6 5:13566.798 6:15172.572 7:11423.946 #
4.0848474115334622e-008 1:0 2:6 3:701 4:24.106106 5:4745.2827 6:3507.8733 7:1159.02 #
-4.0848474115334622e-008 1:1 2:5 3:0.55832201 4:288 5:53.463696 6:49.282223 7:6475.5566 #
4.0848474115334622e-008 1:6 2:7 3:413 4:77.858681 5:41733.781 6:35334.039 7:8979.5215 #
-4.0848474115334622e-008 1:7 2:4 3:353.38889 4:260.40881 5:47994.355 6:41733.781 7:35334.039 #
4.0848474115334622e-008 1:0 2:6 3:34.893185 4:750 5:2141.7012 6:4857.5962 7:5772.9434 #
-4.0848474115334622e-008 1:6 2:1 3:0 4:0 5:1164.1793 6:3561.5342 7:51.633495 #
4.0848474115334622e-008 1:1 2:7 3:202.67393 4:270.17697 5:25586.002 6:23309.416 7:24373.83 #
-4.0848474115334622e-008 1:7 2:5 3:106.60337 4:27.039585 5:15172.572 6:11423.946 7:3781.2725 #
4.0848474115334622e-008 1:1 2:6 3:281 4:607 5:6047.2798 6:4354.2021 7:9992.2959 #
-4.0848474115334622e-008 1:5 2:0 3:81.569344 4:40.892113 5:11137.224 6:7047.7842 7:5691.6919 #
4.0848474115334622e-008 1:0 2:6 3:68.871635 4:249 5:5425.3276 6:6742.9082 7:4681.2368 #
-4.0848474115334622e-008 1:7 2:3 3:0 4:0 5:9992.2959 6:8223.0615 7:3430.1667 #
4.0848474115334622e-008 1:4 2:6 3:85.536865 4:175 5:7454.1318 6:6778.0342 7:3316.1152 #
-4.0848474115334622e-008 1:2 2:0 3:71.397964 4:0 5:9882.8076 6:7350.7192 7:4213.9063 #
4.0848474115334622e-008 1:3 2:5 3:494 4:36.685333 5:5691.6919 6:4594.9434 7:2845.7002 #
-4.0848474115334622e-008 1:4 2:0 3:54.886368 4:15 5:7454.1318 6:6778.0342 7:3316.1152 #
4.0848474115334622e-008 1:1 2:6 3:1107 4:64.823776 5:8481.25 6:7224.1665 7:6294.9863 #
-4.0848474115334622e-008 1:5 2:2 3:30.540892 4:42.564526 5:4214.2817 6:7000.1299 7:6095.8589 #
4.0848474115334622e-008 1:1 2:6 3:62.352394 4:51.416412 5:6374.5708 6:7100.8442 7:3899.8806 #
-4.0848474115334622e-008 1:5 2:2 3:70.615723 4:0 5:9882.8076 6:7350.7192 7:4213.9063 #
4.0848474115334622e-008 1:3 2:6 3:202 4:715 5:3145.4246 6:4932.7153 7:7413.7197 #
-4.0848474115334622e-008 1:4 2:0 3:9.0961466 4:0 5:1464.8287 6:7084.2524 7:6154.4097 #
4.0848474115334622e-008 1:1 2:6 3:252 4:74.827133 5:5355.7749 6:6945.1152 7:3895.7 #
-4.0848474115334622e-008 1:4 2:0 3:29.701345 4:42.148254 5:4214.2817 6:7000.1299 7:6095.8589 #
4.0848474115334622e-008 1:2 2:5 3:50.102428 4:418 5:4049.3328 6:8820.1963 7:8867.6455 #
-4.0848474115334622e-008 1:7 2:4 3:14 4:8 5:4049.3328 6:8820.1963 7:8867.6455 #
4.0848474115334622e-008 1:2 2:5 3:91.702133 4:135 5:7454.1318 6:6778.0342 7:3316.1152 #
-4.0848474115334622e-008 1:6 2:2 3:51.653015 4:14 5:7326.0947 6:6085.8525 7:2398.0789 #
4.0848474115334622e-008 1:2 2:4 3:24.249012 4:274 5:1464.8287 6:7084.2524 7:6154.4097 #
-4.0848474115334622e-008 1:7 2:5 3:0 4:0 5:1464.8287 6:7084.2524 7:6154.4097 #
4.0848474115334622e-008 1:1 2:5 3:48.123032 4:54.163551 5:4329.9814 6:4866.5845 7:3653.6296 #
-4.0848474115334622e-008 1:7 2:0 3:0 4:0 5:1164.1793 6:3561.5342 7:51.633495 #
4.0848474115334622e-008 1:1 2:6 3:47.340717 4:457 5:4394.5479 6:5425.3276 7:6742.9082 #
-4.0848474115334622e-008 1:6 2:7 3:42.225136 4:98.643547 5:6025.7842 6:7160.936 7:13566.798 #
4.0848474115334622e-008 1:2 2:5 3:51.232517 4:466 5:4890.5239 6:6580.8569 7:6622.5566 #
-4.0848474115334622e-008 1:4 2:1 3:49.953152 4:0 5:7224.1665 6:6294.9863 7:2278.4575 #
4.0848474115334622e-008 1:3 2:6 3:69.603767 4:221.82542 5:6436.312 6:6176.582 7:10507.707 #
-4.0848474115334622e-008 1:7 2:2 3:0 4:100.0394 5:4718.0464 6:7763.2051 7:13627.521 #
4.0848474115334622e-008 1:2 2:5 3:362 4:266 5:9992.2959 6:8223.0615 7:3430.1667 #
-4.0848474115334622e-008 1:1 2:1 3:100.3838 4:4 5:13861.269 6:4517.2153 7:1846.736 #
4.0848474115334622e-008 1:2 2:4 3:674 4:149 5:6374.5708 6:7100.8442 7:3899.8806 #
-4.0848474115334622e-008 1:7 2:4 3:48.477947 4:0 5:6374.5708 6:7100.8442 7:3899.8806 #
4.0848474115334622e-008 1:1 2:4 3:137 4:49.939003 5:5354.627 6:6266.2939 7:4807.2144 #
-4.0848474115334622e-008 1:7 2:0 3:0 4:0 5:1464.8287 6:7084.2524 7:6154.4097 #
4.0848474115334622e-008 1:0 2:5 3:108.1536 4:195 5:8481.25 6:7224.1665 7:6294.9863 #
-4.0848474115334622e-008 1:6 2:3 3:69.841705 4:0 5:9882.8076 6:7350.7192 7:4213.9063 #
4.0848474115334622e-008 1:0 2:6 3:304 4:68.871635 5:4938.4043 6:4394.5479 7:5425.3276 #
-4.0848474115334622e-008 1:6 2:3 3:4 4:129 5:2333.6106 6:4890.5239 7:6580.8569 #
4.0848474115334622e-008 1:2 2:6 3:396 4:91.581612 5:6095.8589 6:5941.9795 7:5397.7905 #
-4.0848474115334622e-008 1:5 2:2 3:58 4:54 5:11137.224 6:7047.7842 7:5691.6919 #
4.0848474115334622e-008 1:3 2:6 3:149 4:706 5:4751.8096 6:6025.7842 7:7160.936 #
-4.0848474115334622e-008 1:2 2:2 3:0.15041378 4:216 5:129.91826 6:1464.8287 7:7084.2524 #
4.0848474115334622e-008 1:3 2:5 3:568 4:25.675093 5:8926.6504 6:4340.8403 7:1386.9575 #
-4.0848474115334622e-008 1:1 2:0 3:88.223038 4:13 5:12557.965 6:5611.7383 7:3021.7092 #
4.0848474115334622e-008 1:1 2:7 3:43.801693 4:487 5:3160.4509 6:8324.292 7:13664.028 #
-4.0848474115334622e-008 1:6 2:2 3:0 4:14 5:4049.3328 6:8820.1963 7:8867.6455 #
4.0848474115334622e-008 1:2 2:5 3:99.627777 4:104 5:11423.946 6:3781.2725 7:1900.9344 #
-4.0848474115334622e-008 1:6 2:0 3:54.884331 4:0 5:7454.1318 6:6778.0342 7:3316.1152 #
4.0848474115334622e-008 1:2 2:6 3:58.799255 4:596 5:4719.1094 6:5859.8882 7:4718.0464 #
-4.0848474115334622e-008 1:7 2:3 3:47.035915 4:0 5:6374.5708 6:7100.8442 7:3899.8806 #
4.0848474115334622e-008 1:3 2:5 3:53.470596 4:162 5:5173.2158 6:5904.7783 7:3178.3979 #
-4.0848474115334622e-008 1:1 2:1 3:29.285696 4:73 5:4113.8418 6:5635.2197 7:5624.834 #
4.0848474115334622e-008 1:2 2:3 3:50.835178 4:69.746803 5:4350.1807 6:4443.2471 7:6299.3711 #
-4.0848474115334622e-008 1:3 2:6 3:0.55754948 4:247 5:53.463696 6:49.282223 7:6475.5566 #
4.0848474115334622e-008 1:5 2:6 3:269 4:147 5:15172.572 6:11423.946 7:3781.2725 #
-4.0848474115334622e-008 1:4 2:0 3:97.496635 4:0 5:13861.269 6:4517.2153 7:1846.736 #
4.0848474115334622e-008 1:5 2:7 3:63 4:138 5:2884.3042 6:4751.8096 7:6025.7842 #
-4.0848474115334622e-008 1:5 2:0 3:0 4:0 5:10027.052 6:7906.8276 7:3036.5181 #
4.0848474115334622e-008 1:0 2:7 3:462 4:238 5:7100.8442 6:3899.8806 7:3544.1995 #
-4.0848474115334622e-008 1:5 2:3 3:8 4:0 5:4049.3328 6:8820.1963 7:8867.6455 #
4.0848474115334622e-008 1:1 2:6 3:1180 4:96 5:8926.6504 6:4340.8403 7:1386.9575 #
-4.0848474115334622e-008 1:2 2:0 3:97.357849 4:0 5:13861.269 6:4517.2153 7:1846.736 #
4.0848474115334622e-008 1:0 2:4 3:278 4:181 5:6707.2271 6:6374.5708 7:7100.8442 #
-4.0848474115334622e-008 1:7 2:6 3:34 4:11 5:6374.5708 6:7100.8442 7:3899.8806 #
4.0848474115334622e-008 1:5 2:6 3:152 4:58.877991 5:5355.7749 6:6945.1152 7:3895.7 #
-4.0848474115334622e-008 1:6 2:3 3:7.1365151 4:3 5:1070.0177 6:6707.2271 7:6374.5708 #
4.0848474115334622e-008 1:3 2:5 3:402 4:148 5:5772.9434 6:4958.8623 7:2550.6365 #
